tree
version=v4
num_class=1
num_tree_per_iteration=1
label_index=0
max_feature_idx=23
objective=regression
feature_names=Column_0 Column_1 Column_2 Column_3 Column_4 Column_5 Column_6 Column_7 Column_8 Column_9 Column_10 Column_11 Column_12 Column_13 Column_14 Column_15 Column_16 Column_17 Column_18 Column_19 Column_20 Column_21 Column_22 Column_23
feature_infos=[-6.7197888793666669:8.0704142792814775] [-5.1249560658806912:6.0703647876893685] [-4.1195758122200337:5.1948576346289128] [-2.8070462031473022:4.7752198131233454] [-2.5681117765858978:5.9300680711361791] [-1.3779264464783523:7.3707640549074407] [-1.4647135695538249:5.4466247762688225] [-1.7385479001697965:3.551664234781061] [-2.9025540721859588:2.6288936128235179] [-8.791320847360204:6.867959317303713] [-0.99337928973429768:1.0066648362152686] [-3.2416771905505852:2.9302222511250369] [-1.3653651062533456:7.6185469819012051] [-6.0249185420915454:6.5868974927694381] [-4.2397620179644315:5.1662118825442507] [-4.5857922770630379:3.6643896656512545] [-1.6988810421584966:15.234438278541791] [-1.4378634654124667:5.9489752591873062] [-5.1249560658806912:6.0703647876893685] [-4.1195758122200337:5.1948576346289128] [-3.59424274809377:1.0128574060052102] [-1.4303514974121556:5.4207320116195312] [-3.2416771905432844:2.9302222511759926] [-3.8390316171936929:3.8049814781646782]
tree_sizes=2805 2925 2945 2950 2915 2944 2930 2919 2906 2937 2957 2913 2940 2935 2938 2886 2934 2948 2954 2912 2933 2948 2921 2951 2920 2949 2912 2954 2958 2969 2935

Tree=0
num_leaves=31
num_cat=0
split_feature=6 7 12 7 21 20 14 9 17 4 3 7 23 21 7 9 6 7 17 9 6 17 7 7 7 6 20 21 7 19
split_gain=1.2281 1.41229 1.0323 0.943612 1.19203 0.974841 1.03211 0.769681 0.659064 0.650301 1.01456 1.29901 0.610251 1.17693 0.610099 0.557504 0.622769 0.647891 0.545644 0.532647 0.507419 0.490309 0.490256 0.485098 0.826326 1.01155 0.48297 0.449223 0.943045 0.436796
threshold=2.6405352438178489 2.4935702911853177 1.8620157082004549 0.8293886538544909 0.49443265361301025 -0.90978976094763653 -0.31417553339458953 -1.0062106110248323 1.4468572858411497 0.049444849616233959 -0.66145265387409935 0.31923366611985832 -0.12666782203408952 -0.08089102516021536 1.226231412885544 1.6017529134421487 0.54094759927160008 1.0497283327218896 1.5181685856039586 -0.079381061472931572 -0.27511669383014831 0.48035908332720995 1.3383524248551222 0.1332451349475153 0.39518960837435196 -0.012808064313862598 0.30650588189649397 3.2721442495672295 0.5002110339928979 1.2075077736527093
decision_type=2 2 2 2 2 2 2 2 2 2 2 2 2 2 2 2 2 2 2 2 2 2 2 2 2 2 2 2 2 2
left_child=1 3 -2 5 15 6 8 -6 -1 10 18 20 13 26 -9 16 17 -5 -7 -19 -12 -13 -16 -15 25 -25 -11 -14 -29 -18
right_child=2 -3 -4 4 7 9 -8 14 -10 12 11 21 27 23 22 -17 29 19 -20 -21 -22 -23 -24 24 -26 -27 -28 28 -30 -31
leaf_value=0.029349464342690611 0.035158509863432511 0.026528054353263105 0.030587655524446852 0.031009141398122025 0.025781125244964991 0.029328274430612776 0.027019445666655661 0.02843052305007834 0.032999987676512119 0.027479159652403815 0.031051974161007211 0.036829453982511404 0.029517375887646052 0.030887107251818938 0.035567721832933767 0.029337395677947548 0.030782336596349796 0.037996215731380845 0.033516675407252172 0.033463228091114988 0.02984061970857637 0.030997182725783716 0.030615087151530392 0.041576961575966548 0.031462849788761127 0.032421100703978536 0.030372328544763998 0.037253898911425047 0.029242568627482136 0.033602089914857212
leaf_weight=556 81 96 102 83 41 608 175 121 48 103 1280 45 1857 215 20 75 307 30 29 135 407 20 194 20 88 26 101 21 34 60
leaf_count=556 81 96 102 83 41 608 175 121 48 103 1280 45 1857 215 20 75 307 30 29 135 407 20 194 20 88 26 101 21 34 60
internal_value=0.0302041 0.0301392 0.0326288 0.0301905 0.0310094 0.0300361 0.029051 0.0296564 0.029645 0.0301936 0.0305469 0.0309205 0.0298524 0.0307272 0.0301409 0.0317509 0.0320502 0.033218 0.0295242 0.0343098 0.0307579 0.035085 0.0310943 0.031789 0.033212 0.0364831 0.0289257 0.0295978 0.0322543 0.0312523
internal_weight=6978 6795 183 6699 1066 5633 779 376 604 4854 2389 1752 2465 553 335 690 615 248 637 165 1687 65 214 349 134 46 204 1912 55 367
internal_count=6978 6795 183 6699 1066 5633 779 376 604 4854 2389 1752 2465 553 335 690 615 248 637 165 1687 65 214 349 134 46 204 1912 55 367
is_linear=0
shrinkage=1


Tree=1
num_leaves=31
num_cat=0
split_feature=5 7 7 21 20 23 3 9 4 3 7 9 2 7 15 21 7 17 4 21 7 15 17 7 4 21 7 3 16 2
split_gain=1.1708 0.87754 0.996576 1.23288 1.00102 0.917089 0.699041 0.66194 0.612473 0.97293 1.05263 0.559232 0.539711 0.751041 0.661382 0.593649 1.04765 0.520325 0.516774 0.753854 0.507577 0.462866 0.449867 0.442604 0.442474 0.403542 0.402489 0.489086 0.393617 0.383225
threshold=2.9137408000344913 2.4935702911853177 0.8293886538544909 0.41375665522139232 -0.90978976094763653 -0.3283505707676978 -0.99260852855484305 -1.0062106110248323 -0.043368894904377085 -0.66145265387409935 0.31923366611985832 1.6017529134421487 -0.24409124273468982 -0.10044532451664147 -0.67733058977128402 3.2721442495672295 0.097285100067064562 1.5181685856039586 3.6246024794686269 2.4912319684629636 1.3383524248551222 -0.29856255561123674 1.4468572858411497 1.0497283327218896 1.0001839282497256 1.2443309965846272 2.140501107812359 -0.66926132152105289 -1.1670546024818622 -0.74797019129332376
decision_type=2 2 2 2 2 2 2 2 2 2 2 2 2 2 2 2 2 2 2 2 2 2 2 2 2 2 2 2 2 2
left_child=1 2 4 11 5 22 -3 24 9 17 21 -4 13 -10 29 28 -17 -6 19 20 -9 -11 -1 -13 -5 -16 -2 -28 -14 -15
right_child=26 6 3 7 8 -7 -8 18 12 10 -12 23 15 14 25 16 -18 -19 -20 -21 -22 -23 -24 -25 -26 -27 27 -29 -30 -31
leaf_value=-0.00081603015766821445 0.0015326816991148246 0.0024783855659970596 0.001921393612191405 -0.00038513539403112011 -0.00079937958754321657 -0.0030649174306196488 -0.0035702018869309218 -0.0023037509488728612 -0.00032466281607013457 -0.00029502320131319175 0.0049264852095794714 0.0017397891046429836 -0.0045338245273216973 0.0015597409884835673 0.0016207361815790378 0.0070805376316921643 -0.00098518761063734581 0.0035132036699335378 -0.0031815039018427368 0.0030793021262796004 0.00053389222212802149 0.00095659109359505208 0.0023868786339590552 -0.0030933718795440796 -0.0063999626288811368 -0.00151274182934575 0.0075277783907287061 0.0011804871033154315 -0.00057376541846331137 0.0067750330445156479
leaf_weight=554 99 20 610 21 584 175 102 83 439 347 54 30 23 24 161 25 33 26 41 73 176 1093 42 38 26 47 28 20 1952 32
leaf_count=554 99 20 610 21 584 175 102 83 439 347 54 30 23 24 161 25 33 26 41 73 176 1093 42 38 26 47 28 20 1952 32
internal_value=2.43395e-05 -3.22501e-05 1.31759e-05 0.000840088 -0.000148118 -0.00115204 -0.00255284 -0.000431448 1.12062e-05 0.000396629 0.000809698 0.00163214 -0.000284093 0.000430037 0.00169602 -0.00053252 0.00244599 -0.000610102 -2.30792e-07 0.000384444 -0.000364428 0.000652904 -0.000584927 -0.000917618 -0.0037827 0.000897888 0.00267265 0.0049534 -0.000621629 0.00460015
internal_weight=6978 6831 6709 1098 5611 771 122 420 4840 2104 1494 678 2736 703 264 2033 58 610 373 332 259 1440 596 68 47 208 147 48 1975 56
internal_count=6978 6831 6709 1098 5611 771 122 420 4840 2104 1494 678 2736 703 264 2033 58 610 373 332 259 1440 596 68 47 208 147 48 1975 56
is_linear=0
shrinkage=0.03


Tree=2
num_leaves=31
num_cat=0
split_feature=6 7 15 7 4 17 3 23 4 6 23 7 17 15 9 6 3 9 15 4 14 17 6 5 7 15 3 15 13 6
split_gain=1.10396 1.26073 1.15895 0.831889 0.886611 0.571691 0.795101 0.789017 0.519059 0.740066 0.734082 1.00227 0.646883 0.561576 0.451554 0.628043 0.395176 0.589096 0.477497 1.14573 0.389412 0.452532 0.472908 0.362733 0.359338 0.339242 0.368341 0.315311 0.303845 0.306671
threshold=2.6405352438178489 2.4935702911853177 0.15627087569539397 0.8293886538544909 0.49399875975957952 1.928279851743351 -0.6181000795826217 1.2767504812401176 0.049444849616233959 -0.087695185578433102 -0.14734673851551625 0.05984563459882649 0.58693048917172941 -0.35698925791203256 1.6017529134421487 1.8569398993167219 -0.41076074338297813 -0.51349804391811571 0.059582635110331732 2.0530158717174385 -1.582377774106267 0.26747053113074365 0.28825075681096518 0.951722597312887 1.0497283327218896 -0.66447057299688372 0.77156350860337597 -0.84396430934134736 1.7179213430903684 1.1060396101483503
decision_type=2 2 2 2 2 2 2 2 2 2 2 2 2 2 2 2 2 2 2 2 2 2 2 2 2 2 2 2 2 2
left_child=1 3 -2 5 14 6 7 20 9 13 11 -10 25 -8 15 -5 27 23 19 -19 -1 -22 -23 -18 -16 -13 -27 -6 29 -12
right_child=2 -3 -4 4 16 -7 8 -9 10 -11 28 12 -14 -15 24 -17 17 18 -20 -21 21 22 -24 -25 -26 26 -28 -29 -30 -31
leaf_value=0.00063817499188899762 0.0041611941063656862 -0.0034497379684679283 -0.00074437354522473125 0.0020037944347342357 -0.00028756193331138215 0.0028232609374142493 -0.00041303858851865038 -0.0065810065155063194 -0.00010206605584732193 -0.00079023658014893588 -0.00054138246882786095 0.0074006735896382375 0.00023177019920157208 0.0010015989207995282 0.0017060809555272006 -0.00042646467840714029 -0.005612505446947841 -0.0014996679859094041 -0.00094566547164859089 0.0079608672056625147 -0.00054176214146351223 -0.0033284149817355778 -0.00089992369645385656 -0.0013310338248384696 -0.0023162714065664944 0.0012082020938647482 0.0061761044069834348 0.0048448657112738196 0.0010458861181367543 -0.0028708660325803661
leaf_weight=165 115 96 68 561 21 58 317 21 319 371 1759 27 52 1192 32 113 33 26 145 20 828 125 182 44 51 37 23 20 104 53
leaf_count=165 115 96 68 561 21 58 317 21 319 371 1759 27 52 1192 32 113 33 26 145 20 828 125 182 44 51 37 23 20 104 53
internal_value=2.36166e-05 -3.78894e-05 0.00232256 1.0607e-05 0.000779474 -0.000134374 -0.000165732 -0.000808713 3.3243e-05 0.000406242 -0.00026088 0.000815448 0.00294124 0.000702426 0.00133338 0.00159189 -0.000567785 -0.000995213 -8.55257e-05 0.00255688 -0.000712662 -0.000911721 -0.00189925 -0.00320976 -0.000729197 0.00452412 0.00316959 0.00214877 -0.00051976 -0.000611329
internal_weight=6978 6795 183 6699 1066 5633 5575 1321 4254 1880 2374 458 139 1509 757 674 309 268 191 46 1300 1135 307 77 83 87 60 41 1916 1812
internal_count=6978 6795 183 6699 1066 5633 5575 1321 4254 1880 2374 458 139 1509 757 674 309 268 191 46 1300 1135 307 77 83 87 60 41 1916 1812
is_linear=0
shrinkage=0.03


Tree=3
num_leaves=31
num_cat=0
split_feature=5 7 7 21 20 14 3 9 4 3 7 2 21 21 6 15 6 21 9 6 7 17 4 21 7 9 15 17 21 2
split_gain=1.06378 0.781604 0.876421 1.10628 0.916613 0.850725 0.632262 0.597192 0.558629 0.872834 0.993613 0.486948 0.770992 0.585587 1.10366 0.583832 0.578345 0.565198 0.480196 0.503771 0.608003 0.472105 0.463096 0.730419 0.475514 0.455438 0.411796 0.407725 0.382262 0.377534
threshold=2.9137408000344913 2.4935702911853177 0.8293886538544909 0.49443265361301025 -0.90978976094763653 -0.31417553339458953 -0.99260852855484305 -1.1539422017490002 -0.043368894904377085 -0.66145265387409935 0.31923366611985832 -0.16680034459148835 -0.072945856063711859 2.4912319684629636 -0.16329371699853437 -0.52620771778276876 1.3875365445108634 0.85379335421843883 1.6017529134421487 0.54094759927160008 1.0257501843447205 1.5181685856039586 3.6246024794686269 2.4912319684629636 1.3383524248551222 -0.079381061472931572 -0.29856255561123674 1.4468572858411497 1.2897464187599381 1.2075077736527093
decision_type=2 2 2 2 2 2 2 2 2 2 2 2 2 2 2 2 2 2 2 2 2 2 2 2 2 2 2 2 2 2
left_child=1 2 4 18 5 27 -3 -5 9 21 26 12 -10 16 -15 17 -13 -14 19 20 -4 -6 23 24 -9 -22 -11 -1 -17 -21
right_child=-2 6 3 7 8 -7 -8 22 11 10 -12 13 15 14 -16 28 -18 -19 -20 29 25 -23 -24 -25 -26 -27 -28 -29 -30 -31
leaf_value=-0.00077394174447409955 0.0025472255240882704 0.0023710661270280376 0.00061390000908528419 -0.0040452688430824618 -0.00075280057542340194 -0.0029425919313062999 -0.0033781457174832533 -0.0024143327013309217 -0.00068876375610810376 -0.00027373847692874144 0.0047721266636432131 -0.00059932542476724693 0.0016435782138087714 0.006265652947058188 -0.00025397412480604887 0.0010019009957164208 -0.0053951503897642162 0.0065756829119500045 -0.00076878620628375823 0.00066079595500251429 0.0071431647199336609 0.0033545383526247803 -0.0030474502263223473 0.0029355790024798776 0.00041444243249959435 0.0030563589743047106 0.00090643318694163112 0.0022746571091461633 -0.0017484506920386513 0.0033133199003728656
leaf_weight=554 147 20 79 38 584 175 102 78 358 347 54 1788 72 32 83 296 23 31 73 322 32 26 42 73 166 137 1093 42 53 58
leaf_count=554 147 20 79 38 584 175 102 78 358 347 54 1788 72 32 83 296 23 31 73 322 32 26 42 73 166 137 1093 42 53 58
internal_value=2.28344e-05 -3.10867e-05 1.17593e-05 0.000787249 -0.000139471 -0.00110015 -0.00240991 -0.000472304 1.2963e-05 0.000381076 0.000772358 -0.000269025 0.000345858 -0.000529183 0.00153799 0.00117192 -0.000662184 0.00316203 0.00150482 0.00177397 0.00283306 -0.000572295 -8.47322e-05 0.000299181 -0.000478167 0.0038517 0.000619962 -0.000553729 0.000575251 0.00107431
internal_weight=6978 6831 6709 1098 5611 771 122 397 4840 2104 1494 2736 810 1926 115 452 1811 103 701 628 248 610 359 317 244 169 1440 596 349 380
internal_count=6978 6831 6709 1098 5611 771 122 397 4840 2104 1494 2736 810 1926 115 452 1811 103 701 628 248 610 359 317 244 169 1440 596 349 380
is_linear=0
shrinkage=0.03


Tree=4
num_leaves=31
num_cat=0
split_feature=6 15 12 14 20 23 6 13 15 14 21 15 6 20 21 23 21 21 14 21 17 9 21 15 12 9 17 1 15 15
split_gain=1.00831 1.07184 0.432525 0.409716 0.631529 0.63815 0.428226 0.971627 0.436309 0.407747 0.391789 1.06579 0.767182 0.460923 0.376942 0.494698 0.961531 0.423673 0.568407 1.23581 0.511142 0.366063 0.360235 0.342256 0.340715 0.314815 0.314143 0.283375 0.273264 0.31416
threshold=2.6405352438178489 0.15627087569539397 3.1069568929310778 -1.6213971264751892 -0.48714395679456007 1.1286209825251163 1.3875365445108634 1.1428868296560863 -0.86114304312605838 0.93406878234830282 3.2721442495672295 0.35280835313787745 0.036587619984149562 0.79055870389168981 1.0661751959106329 -0.99298829362874608 0.22513316461465771 -0.42766651526975813 -0.53121477493856284 0.67761887663988063 0.41569294476302648 0.22864177358932067 0.45186663284329687 -0.13269004233363649 -0.10341334712682543 0.47209317501031173 0.70727102087975957 -1.2310687178629147 -1.2643432528599501 -2.0906362662579192
decision_type=2 2 2 2 2 2 2 2 2 2 2 2 2 2 2 2 2 2 2 2 2 2 2 2 2 2 2 2 2 2
left_child=3 2 -2 22 5 9 10 8 -8 -5 13 -12 -13 14 15 16 -6 20 19 27 21 -17 26 24 -16 -7 -1 -19 29 -28
right_child=1 -3 -4 4 6 25 7 -9 -10 -11 11 12 -14 -15 23 17 -18 18 -20 -21 -22 -23 -24 -25 -26 -27 28 -29 -30 -31
leaf_value=-6.8361856407955313e-05 0.004831090056122948 -0.00072881433125051957 0 -0.00061978834964489314 -0.0010389471561546256 -0.0069300295356043142 0.00017185309632885114 0.0017953714496469163 -0.0035550758251742709 0.0026879010601324246 0.0071986691208406426 0.0041641135871190423 -0.0021679124553764984 -0.00036323908301188188 -0.00018755442392153751 0.0014531851031081135 0.0029079357017988165 0.0039129318392460604 0.00011520853351444885 0.008814380816603299 0.0055531488610250125 7.8299028103051208e-05 -0.0018903445821182286 -0.0010447627421334637 0.0041597389105197296 -0.0015033120819327741 0.0003654863920835954 0.0001873548937329723 0.00023588498308494036 0.0037102641535675432
leaf_weight=87 95 68 20 1334 406 21 36 64 110 34 26 27 47 1433 46 525 64 23 1525 21 23 268 33 308 24 21 37 100 55 97
leaf_count=87 95 68 20 1334 406 21 36 64 110 34 26 27 47 1433 46 525 64 23 1525 21 23 268 33 308 24 21 37 100 55 97
internal_value=2.2185e-05 0.0022193 0.00398772 -3.65771e-05 -8.78562e-05 -0.000649703 6.7631e-05 -0.00125715 -0.00261608 -0.000535196 0.000125445 0.00198426 0.000104437 8.57734e-05 0.000279728 0.000394454 -0.000494613 0.000563828 0.000287479 0.0020897 0.00112528 0.000992384 0.00102976 -0.000609066 0.00126396 -0.00429795 0.00139033 0.000910991 0.00207733 0.00281004
internal_weight=6978 183 115 6795 6486 1410 5076 210 146 1368 4866 100 74 4766 3333 2955 470 2485 1669 144 816 793 309 378 70 42 276 123 189 134
internal_count=6978 183 115 6795 6486 1410 5076 210 146 1368 4866 100 74 4766 3333 2955 470 2485 1669 144 816 793 309 378 70 42 276 123 189 134
is_linear=0
shrinkage=0.03


Tree=5
num_leaves=31
num_cat=0
split_feature=6 7 4 7 17 17 9 20 4 15 7 23 7 23 7 6 16 14 9 7 4 9 4 6 14 4 14 7 17 4
split_gain=1.15947 1.26588 1.04403 0.698722 0.86002 0.658562 0.627798 0.573086 0.822462 0.875348 0.622607 0.601193 1.09266 0.590637 0.540342 0.894713 0.536057 0.491893 0.472995 0.486131 0.466556 0.730372 0.457916 0.436695 0.413405 0.575218 0.367442 0.362017 0.3605 0.361841
threshold=2.6405352438178489 2.401810277850783 2.5234868974197062 1.226231412885544 1.3001672546514564 1.7090013176475665 0.13381224226714625 -0.48714395679456007 0.049444849616233959 -0.29856255561123674 0.33630439745379442 -0.12666782203408952 0.1332451349475153 1.1286209825251163 0.44184002203261902 -0.012808064313862598 -1.1670546024818622 -1.582377774106267 0.69583860965400801 1.3383524248551222 1.0710827020637737 -0.72467907935855258 0.0069673653930987069 -0.31999422483450202 0.2066719357298584 -0.47034362355036746 0.11698199269042397 0.8293886538544909 0.056480424271734934 -0.043368894904377085
decision_type=2 2 2 2 2 2 2 2 2 2 2 2 2 2 2 2 2 2 2 2 2 2 2 2 2 2 2 2 2 2
left_child=1 3 6 5 18 7 -2 13 9 -9 23 12 -10 17 15 -14 -13 -1 19 -5 26 -22 -7 -11 -12 -26 -6 28 -19 -30
right_child=2 -3 -4 4 20 22 -8 8 11 10 24 16 14 -15 -16 -17 -18 27 -20 -21 21 -23 -24 -25 25 -27 -28 -29 29 -31
leaf_value=0.00082643439374703186 0.00088336293984104153 -0.002883773725260472 -0.0026803679562284579 0.0062011235792996337 0.0010400817195858995 0.0028458590174813081 0.0047888449820887805 -0.0004492119467705022 -0.00029687028378460375 0.00097258547779125999 -0.00017476100246490721 -0.004964307613737614 0.0094541502833613705 -0.0050423347005650425 0.0012018845955525164 0.0017989972288696427 -0.00053658448314173723 -0.00057619898846790647 -9.8703405106277361e-06 0.0020334404202349472 -0.0069305144656788215 -1.0656961897733793e-05 -0.00095203031298787279 -0.00030233951089813727 0.0079754210934352091 0.0024197271816118106 -0.0025248355881493782 0.00038740985784706283 -0.0020815869751288018 0.0017314259986114962
leaf_weight=177 63 140 31 29 133 111 98 675 384 1016 27 25 24 28 88 35 2019 476 88 251 23 36 37 313 24 65 32 166 348 23
leaf_count=177 63 140 31 29 133 111 98 675 384 1016 27 25 24 28 88 35 2019 476 88 251 23 36 37 313 24 65 32 166 348 23
internal_value=2.90918e-06 -6.16575e-05 0.00230175 -1.77794e-06 0.000981402 -9.83183e-05 0.00328073 -0.000148276 1.52086e-06 0.00043975 0.000857088 -0.000358112 0.000538219 -0.000728111 0.00273879 0.00497445 -0.000592447 -0.000623664 0.00187498 0.00247786 -0.000473413 -0.00276615 0.00187613 0.000670064 0.00297154 0.00395883 0.000329422 -0.000880055 -0.00113202 -0.00183671
internal_weight=6985 6793 192 6653 592 6061 161 5913 4695 2120 1445 2575 531 1218 147 59 2044 1190 368 280 224 59 148 1329 116 89 165 1013 847 371
internal_count=6985 6793 192 6653 592 6061 161 5913 4695 2120 1445 2575 531 1218 147 59 2044 1190 368 280 224 59 148 1329 116 89 165 1013 847 371
is_linear=0
shrinkage=0.03


Tree=6
num_leaves=31
num_cat=0
split_feature=6 7 4 7 6 9 14 20 4 15 7 23 7 7 16 6 6 6 11 12 19 15 23 4 12 12 20 15 9 4
split_gain=1.091 1.19111 0.983088 0.657017 0.762117 0.590091 0.495424 0.607174 0.799353 0.96197 0.684057 0.580613 1.33132 0.544062 0.620462 0.510819 0.481281 0.471416 0.54739 0.489491 0.462116 0.455212 0.416958 0.365625 0.359647 0.33676 0.33232 0.326872 0.612497 0.366918
threshold=2.6405352438178489 2.401810277850783 2.5234868974197062 1.226231412885544 0.42250422069994514 0.13381224226714625 -1.8058007793478985 -0.68080716542189956 0.049444849616233959 -0.29856255561123674 0.44184002203261902 -0.45973353109667314 0.02058157125964177 0.37521591761036421 -1.0195254305224786 1.1060396101483503 -0.31999422483450202 0.46529104575725372 -0.71486239172291599 -0.12795020434109014 0.78169522075013786 1.7510292659479771 1.1286209825251163 -0.38107868270101902 1.1109926696367516 1.2867129893726046 0.58608090406648261 0.53183827312417786 -0.69875204770404153 1.677299157485842
decision_type=2 2 2 2 2 2 2 2 2 2 2 2 2 2 2 2 2 2 2 2 2 2 2 2 2 2 2 2 2 2
left_child=1 3 5 6 26 -2 -1 15 9 -9 16 12 -10 24 -15 22 -11 18 19 -14 -12 25 -8 -22 -13 27 -5 28 -6 -30
right_child=2 -3 -4 4 21 -7 7 8 11 10 20 13 17 14 -16 -17 -18 -19 -20 -21 23 -23 -24 -25 -26 -27 -28 -29 29 -31
leaf_value=0.0018437727959345286 0.00085690406040419859 -0.0027973222244347443 -0.0026002154261221162 0.0036401819783829729 -0.0037533777942518128 0.0046453260783809571 -0.00090510147695305914 -0.0004085960915314937 -0.00055232721820242404 0.00098559953917714085 0.0012988707230363015 -0.00043329628929570372 0.0001170861027364073 -0.0060527199120314302 -0.0012249091834158289 0.0014337948406962443 -0.00032092498746837713 0.0011560297817898662 0.0088961221140965267 0.0063902779931635087 0.0081218889820899361 -0.0024550312008640432 -0.0051099256371312275 0.0029291524485544271 0.0012398719721342113 -0.00060464327084324386 0.00087207561085118988 0.0040278765559469592 0.00091190145241830877 0.0052647491105234437
leaf_weight=116 63 140 31 109 23 98 903 829 240 1035 70 1733 26 26 367 83 332 57 22 21 22 49 22 34 123 129 66 34 162 20
leaf_count=116 63 140 31 109 23 98 903 829 240 1035 70 1733 26 26 367 83 332 57 22 21 22 49 22 34 123 129 66 34 162 20
internal_value=2.80222e-06 -5.98161e-05 0.00223275 -1.71827e-06 0.000951655 0.00318297 -9.53468e-05 -0.000133718 2.67556e-06 0.00040837 0.000864003 -0.000356417 0.000748131 -0.00053753 -0.0015534 -0.00080466 0.000666092 0.00324746 0.00492757 0.00299131 0.00298516 0.000246192 -0.00100889 0.00503347 -0.000320736 0.000614585 0.00261444 0.00128519 0.000813933 0.00140934
internal_weight=6985 6793 192 6653 592 161 6061 5945 4937 2322 1493 2615 366 2249 393 1008 1367 126 69 47 126 417 925 56 1856 368 175 239 205 182
internal_count=6985 6793 192 6653 592 161 6061 5945 4937 2322 1493 2615 366 2249 393 1008 1367 126 69 47 126 417 925 56 1856 368 175 239 205 182
is_linear=0
shrinkage=0.03


Tree=7
num_leaves=31
num_cat=0
split_feature=6 7 4 7 17 17 9 12 4 9 4 17 14 3 4 16 17 14 7 7 7 8 7 3 14 7 5 4 4 7
split_gain=1.02649 1.12083 0.92572 0.618337 0.763566 0.603115 0.55463 0.458036 0.437378 0.662281 0.426537 0.397556 0.379747 0.370402 0.640451 0.461829 0.439801 0.491671 0.751295 0.430391 0.393426 0.366707 0.352856 0.43605 0.343893 0.334562 0.327816 0.444913 0.322516 0.311453
threshold=2.6405352438178489 2.401810277850783 2.5234868974197062 1.226231412885544 1.3001672546514564 1.7090013176475665 0.13381224226714625 -0.64336333039505578 0.7699900592902934 -0.80816560547792649 0.0069673653930987069 0.36169864049632711 -1.7549660002755421 -0.66926132152105289 0.18079765737845491 -1.1670546024818622 -0.40785972420251465 -0.30420699977460214 0.05984563459882649 0.31923366611985832 0.47590323849593846 -0.088501542810424924 -0.25598118225920447 1.2784757715197703 2.4266937916470739 0.44184002203261902 -0.38213014809846135 -0.39067307867725692 -0.61581019272594384 0.7417311440154456
decision_type=2 2 2 2 2 2 2 2 2 2 2 2 2 2 2 2 2 2 2 2 2 2 2 2 2 2 2 2 2 2
left_child=1 3 6 5 7 11 -2 -5 21 -10 -7 13 -13 -1 19 -16 -17 18 -18 -15 -21 -6 23 -19 -9 -20 27 -22 -3 -28
right_child=2 28 -4 4 8 10 -8 24 9 -11 -12 12 -14 14 15 16 17 22 25 20 26 -23 -24 -25 -26 -27 29 -29 -30 -31
leaf_value=-0.00056913378630295329 0.00083123770518827645 -0.00039156816709433155 -0.0025224598182419199 0.0059989282542342376 0.0013212185919615849 0.0027332921562396566 0.0045061084279072808 0.0017255169624818714 -0.0064703133934142683 -0.00015362485562176874 -0.00093066154834826908 0.0012335673958473051 -0.0008186950255121778 0.00032736626139644642 -0.004542435065347265 -0.0006975644736997923 5.248057836975887e-05 4.9251237220186176e-05 0.0073574632091959746 0.0049384048135481147 0.006478492084529195 -0.0018664842324451173 -0.00065388395843092172 0.002817274275843685 -0.002260315128560386 0.0021569004899887867 -0.0030639271089782957 0.00091506653977608448 -0.0036434171744175892 0.0011522842659908981
leaf_weight=905 63 41 31 22 113 111 98 326 24 42 37 87 1016 1988 23 948 74 207 25 32 20 45 382 69 20 24 23 41 99 49
leaf_count=905 63 41 31 22 113 111 98 326 24 42 37 87 1016 1988 23 948 74 207 25 32 20 45 382 69 20 24 23 41 99 49
internal_value=2.78147e-06 -5.79445e-05 0.00216581 -1.57324e-06 0.000923297 -9.24174e-05 0.00308815 0.00176538 -0.000446902 -0.0025023 0.00179704 -0.000140247 -0.000654004 -2.18e-05 0.00010429 -0.000320601 -0.000262445 0.000261896 0.00200278 0.000451436 0.00192701 0.000393747 -5.92242e-05 0.000752892 0.00148587 0.00488093 0.00117676 0.00279586 -0.00271346 -0.000155334
internal_weight=6985 6793 192 6653 592 6061 161 368 224 66 148 5913 1103 4810 3905 1752 1729 781 123 2153 165 158 658 276 346 49 133 61 140 72
internal_count=6985 6793 192 6653 592 6061 161 368 224 66 148 5913 1103 4810 3905 1752 1729 781 123 2153 165 158 658 276 346 49 133 61 140 72
is_linear=0
shrinkage=0.03


Tree=8
num_leaves=31
num_cat=0
split_feature=5 7 9 3 7 21 9 17 20 15 9 17 7 9 21 8 3 23 20 7 20 21 7 2 15 15 17 7 20 3
split_gain=0.932397 0.724147 0.554215 0.547961 0.533518 0.938553 1.08131 0.607799 0.62215 0.5912 0.564167 0.550489 0.470621 0.461914 0.452175 0.406967 0.38505 0.381376 0.395143 0.376737 0.348629 0.417513 0.560049 0.330273 0.360677 0.60661 0.308175 0.4927 1.02228 1.04037
threshold=2.9137408000344913 2.4935702911853177 -0.19435432093047469 -1.0051070587310722 1.0812110066547096 0.32812708439226118 1.6017529134421487 1.7661473695949879 -0.48714395679456007 -0.4045545123184236 -1.1539422017490002 0.82895140636343323 0.66742038510887858 -0.079381061472931572 -0.52020049111628663 -1.2592405021977922 -1.3861134943659812 1.1286209825251163 -1.834840499177387 1.9867582224065685 0.86606345431058973 2.4912319684629636 -0.17745739813464653 2.906252207410263 -0.78015882129746505 -0.13269004233363649 0.57373364331488563 0.16257094810218528 0.40701373638491606 -0.576191387096332
decision_type=2 2 2 2 2 2 2 2 2 2 2 2 2 2 2 2 2 2 2 2 2 2 2 2 2 2 2 2 2 2
left_child=1 4 -2 -3 7 6 11 8 9 12 -7 13 -1 -6 -9 -13 -4 18 -11 -17 26 -22 -23 24 -12 -26 27 -10 29 -29
right_child=2 3 16 -5 5 10 -8 14 20 17 23 15 -14 -15 -16 19 -18 -19 -20 -21 21 22 -24 -25 25 -27 -28 28 -30 -31
leaf_value=-0.00067994241719897481 -0.00062859505050050701 0.0022172774314713562 0.0064217097224714068 -0.0030935419929858455 0.0068336548145437976 -0.003706440632894336 -0.0035649505570948675 0.0041056395816685114 0.00010453462815309734 -0.004930479498679528 -0.0019797483942794736 0.0036540202883813175 0.0011073290833881913 0.0026296106823403128 8.8021902963446191e-05 -0.00059675053691415577 0.002297094159213892 -0.005378390710904778 -0.0011704477779967729 0.0027448471424672883 -0.0006163565203833977 0.0047100982340681592 -0.0015431871756544926 -0.0026617586846950972 0.0035697413152944125 0 -0.00063297254226273047 0.00024353767074470115 -0.00045671017157138301 0.0043487280181857737
leaf_weight=629 43 20 28 111 29 41 32 53 2806 28 47 41 167 163 51 114 93 25 315 41 983 31 21 36 57 170 401 101 180 128
leaf_count=629 43 20 28 111 29 41 32 53 2806 28 47 41 167 163 51 114 93 25 315 41 983 31 21 36 57 170 401 101 180 128
internal_value=2.73067e-06 -5.05993e-05 0.00223776 -0.00225877 -6.8785e-06 0.000734888 0.00169297 -0.000104017 -0.000145173 -0.000765458 -0.000403151 0.00213515 -0.000301114 0.00328344 0.00216626 0.000993902 0.00328084 -0.00176135 -0.00148748 0.000269013 9.43266e-06 -0.000475333 0.00212904 2.51155e-05 0.000389923 0.000894425 0.000149025 0.000247512 0.00122083 0.00255213
internal_weight=6985 6821 164 131 6690 771 420 5919 5815 1164 351 388 796 192 104 196 121 368 343 155 4651 1035 52 310 274 227 3616 3215 409 229
internal_count=6985 6821 164 131 6690 771 420 5919 5815 1164 351 388 796 192 104 196 121 368 343 155 4651 1035 52 310 274 227 3616 3215 409 229
is_linear=0
shrinkage=0.03


Tree=9
num_leaves=31
num_cat=0
split_feature=5 4 21 15 7 21 20 4 15 7 2 4 7 7 16 12 14 7 21 23 7 17 17 20 21 21 15 15 7 20
split_gain=0.87741 0.812805 0.64497 0.626319 0.5986 0.938835 0.635132 0.577997 0.625942 0.504985 0.499865 0.707253 0.480483 0.447304 0.430854 0.414792 0.400517 0.390928 0.388379 1.22294 0.999967 0.57529 0.382855 0.375872 0.593364 0.350535 0.50212 0.439247 0.595788 0.480533
threshold=2.9137408000344913 1.8266120232648977 3.5710986452293811 -0.14039764187841844 0.7207711826165627 0.32812708439226118 -0.90978976094763653 -0.21445037457716806 0.050730799011556388 1.7846913137695217 0.870682861724415 -1.4859813098728483 0.97968387484037889 2.695237707364464 -1.1670546024818622 1.8620157082004549 -0.50585222162658183 2.401810277850783 0.13719698008844169 -0.45973353109667314 0.1332451349475153 0.52518466660006935 1.4111380818196422 0.30650588189649397 -0.29862830247057653 -0.19556397928611266 -1.7131881040355694 -0.34446912275047786 1.0812110066547096 -1.0365916901131229
decision_type=2 2 2 2 2 2 2 2 2 2 2 2 2 2 2 2 2 2 2 2 2 2 2 2 2 2 2 2 2 2
left_child=1 2 4 -3 6 10 16 8 22 -2 11 -6 -12 -5 -9 -11 -1 -7 23 20 -20 -22 -8 24 -16 26 -13 29 -29 -27
right_child=9 3 -4 13 5 17 7 14 -10 15 12 25 -14 -15 18 -17 -18 -19 19 -21 21 -23 -24 -25 -26 27 -28 28 -30 -31
leaf_value=-0.00048352772661356427 0.00019534092451176395 0.0029465850117220268 0.0039698358939400805 -0.001512161052699592 0.0032215146547481303 -0.00020720966596900594 -0.00015961443569354044 -0.0037588000642824492 0.0011986415596270299 0.0059544428771459252 0.0056879283820726271 0.0035406237608301885 0.0017541524424636394 -0.0058249839534403377 -0.0027964162246651393 0.0018069918770618502 -0.0020311928302886549 -0.0029802985012173213 0.00067857203176096875 -0.00019442408390139571 0.0070115790788327055 0.0011730412723828896 0.0031767752179092611 -0.00029935014425194062 -0.00012405138147166176 0.0019138352321035868 -0.00058035185850138663 -0.00098301756679016654 0.0044505685511418546 -0.0019216979619342824
leaf_weight=501 70 26 37 291 94 318 852 31 631 40 38 29 122 24 153 54 220 54 124 1245 49 24 32 1267 151 64 301 24 65 54
leaf_count=501 70 26 37 291 94 318 852 31 631 40 38 29 122 24 153 54 220 54 124 1245 49 24 32 1267 151 64 301 24 65 54
internal_value=2.63859e-06 -4.90821e-05 2.55972e-05 -0.00147659 2.41986e-06 0.000618976 -0.000132827 -1.31141e-06 0.00047682 0.00217078 0.00120475 0.000817916 0.00271013 -0.00185202 -0.000240271 0.0036082 -0.000960146 -0.00061851 -0.00020295 0.000150941 0.00234779 0.00513733 -3.51012e-05 -0.000529681 -0.00147937 0.000391068 -0.000208154 0.00136047 0.0029522 0.000133048
internal_weight=6985 6821 6480 341 6443 1163 5280 4559 1515 164 791 631 160 315 3044 94 721 372 3013 1442 197 73 884 1571 304 537 330 207 89 118
internal_count=6985 6821 6480 341 6443 1163 5280 4559 1515 164 791 631 160 315 3044 94 721 372 3013 1442 197 73 884 1571 304 537 330 207 89 118
is_linear=0
shrinkage=0.03


Tree=10
num_leaves=31
num_cat=0
split_feature=5 12 4 15 20 21 17 14 21 21 12 3 16 14 2 3 6 20 2 17 1 4 15 9 5 9 20 5 23 21
split_gain=0.904752 0.794704 0.684692 0.910664 0.868528 0.808316 0.867708 0.729998 0.606378 0.484774 0.4473 0.434002 0.429106 0.425755 0.626296 0.373066 0.617972 0.514594 0.369922 0.516621 0.38458 0.350628 0.601985 0.406353 0.327221 0.317688 0.374335 0.281857 0.280245 0.279951
threshold=3.69806526429671 2.7889967037078907 0.59399774214501255 -0.14039764187841844 -0.65341567293080194 2.3272767844762976 0.38752289373261045 -0.51947136911445868 0.85379335421843883 0.94907917125790564 0.49124496357524211 0.40292054472593758 -1.1368521365927948 -1.7549660002755421 -1.2896330080257636 -0.66926132152105289 2.8739113905698104 -2.3715478356410231 1.913293118532043 0.70727102087975957 -0.42683743112085021 -0.23278359363390197 -0.29856255561123674 1.2555979971370033 0.76524550848033457 -0.24950382354934794 -1.5258850342030315 -0.63846979271615256 1.0418957083528479 0.12785432002335087
decision_type=2 2 2 2 2 2 2 2 2 2 2 2 2 2 2 2 2 2 2 2 2 2 2 2 2 2 2 2 2 2
left_child=2 -2 5 4 -4 13 -7 9 -6 -5 11 -10 -9 -1 -15 16 24 -17 19 20 -14 22 27 25 28 -24 -27 -19 -16 -23
right_child=1 -3 3 7 8 6 -8 12 10 -11 -12 -13 18 14 15 17 -18 21 -20 -21 -22 29 23 -25 -26 26 -28 -29 -30 -31
leaf_value=0.001347375339726742 0.0054250749575845353 -0.00052300270342172306 -0.0027253775418087972 0.005879188987680457 0.00035574005723418002 0.0071748083775423693 0.00026826945298505345 -0.0052948801735442537 0.0027389322636954191 -0.00015171338565187986 -0.00032411002108200459 0.0074609677965954404 0.00071612051763656989 -0.0013029302213223395 -0.00055250979848383262 -0.0033401756902408397 0.0039011833785671077 -0.0015109145113884536 0.00041520989407664539 -0.0022772475883313667 -0.001034065318646556 -0.00021074546388160674 0.00034263381494716505 -0.0018587834578694918 0.0008683448426975444 0.0044054754512231247 0.0013716153897165605 0.00023914063090763862 -0.0040698938790302702 0.00052271795001868938
leaf_weight=226 51 32 47 23 133 30 38 21 53 23 21 29 130 304 1068 35 30 125 155 274 779 1289 282 40 149 40 615 239 21 734
leaf_count=226 51 32 47 23 133 30 38 21 53 23 21 29 130 304 1068 35 30 125 155 274 779 1289 282 40 149 40 615 239 21 734
internal_value=-1.33069e-05 0.00309787 -5.09214e-05 -0.000576973 0.000970316 0.000117173 0.00336539 -0.000890815 0.00171987 0.00280487 0.00345017 0.00445251 -0.00101831 7.40305e-05 1.55101e-05 0.00010206 -0.000336026 0.000266376 -0.00094856 -0.0011298 -0.000780413 0.000304889 0.000681249 0.00106996 -0.000441435 0.00119837 0.00156211 -0.00035385 -0.00062346 5.3905e-05
internal_weight=7036 83 6953 1688 283 5265 68 1405 236 46 103 82 1359 5197 4971 4667 1268 3399 1338 1183 909 3364 1341 977 1238 937 655 364 1089 2023
internal_count=7036 83 6953 1688 283 5265 68 1405 236 46 103 82 1359 5197 4971 4667 1268 3399 1338 1183 909 3364 1341 977 1238 937 655 364 1089 2023
is_linear=0
shrinkage=0.03


Tree=11
num_leaves=31
num_cat=0
split_feature=5 12 4 15 7 7 20 14 4 4 20 15 16 15 7 2 7 7 12 14 4 9 9 7 7 2 23 23 4 20
split_gain=0.850747 0.748431 0.644188 0.857034 1.03484 0.845603 0.737252 0.686454 0.61597 0.492382 0.411222 0.461106 0.403707 0.400447 0.410079 0.389689 0.373316 0.344918 0.354765 0.339365 0.323985 0.395169 0.393177 0.521308 0.355914 0.318572 0.275503 0.274873 0.27151 0.270164
threshold=3.69806526429671 2.7889967037078907 0.59399774214501255 -0.14039764187841844 1.411447805464344 0.68101229721514844 0.06959223286017284 -0.51947136911445868 2.0530158717174385 -1.3854388525310799 -2.3715478356410231 -0.45013096065413538 -1.1368521365927948 -0.88303160858869545 -1.205291845628683 2.5936088046283543 2.695237707364464 -0.33747268133614367 -0.37292872460228071 -0.20640119626862771 -0.56874374383457649 0.14749679139662256 -1.4018472185520221 0.25048647219010939 0.48876675167910322 1.913293118532043 0.4310303529003417 1.3352150216418195 1.4109116217332165 -0.82447704447242887
decision_type=2 2 2 2 2 2 2 2 2 2 2 2 2 2 2 2 2 2 2 2 2 2 2 2 2 2 2 2 2 2
left_child=2 -2 5 4 8 6 27 28 17 -7 19 29 -9 -8 -15 -13 25 -4 -19 -11 21 -16 -22 -24 26 -14 -25 -1 -5 -12
right_child=1 -3 3 7 -6 9 13 12 -10 10 11 15 16 14 20 -17 -18 18 -20 -21 22 -23 23 24 -26 -27 -28 -29 -30 -31
leaf_value=-0.00054183114600830202 0.0052626412576784378 -0.0005073614634799762 -0.00066088956144999414 0.0047351769753464163 -0.0033158312357984819 0.0023822239655008522 -0.0018580815878135157 -0.0051367865076125258 0.006779226732454193 0.00047405033366295035 0.00074375053396808204 0.001658112741401198 -0.0010152566333336771 -0.00077539752673672199 0.0023462415967528236 -0.0019498124487658303 -0.0043674673281238804 0.0051405938018484528 0.0013038116464759403 -0.0044183149661911631 -0.0019854721010859507 -0.00015567575672753025 0.00027691093533214193 0.0069827341310397424 1.8270428090826744e-05 0.0004241270892304537 0.0022378739522597221 -0.0036121774046609647 0 -0.00080265948196560192
leaf_weight=1521 51 32 60 26 43 165 80 21 20 23 217 411 1156 286 159 28 28 27 133 26 65 85 1902 21 29 154 29 27 20 191
leaf_count=1521 51 32 60 26 43 165 80 21 20 23 217 411 1156 286 159 28 28 27 133 26 65 85 1902 21 29 154 29 27 20 191
internal_value=-1.28487e-05 0.00300403 -4.93362e-05 -0.0005596 0.000941286 0.000113696 -7.66529e-05 -0.000864095 0.00171758 0.00087068 0.000588743 0.000746005 -0.00098778 0.000225825 0.000291776 0.00142077 -0.00092004 0.00124093 0.00197281 -0.00206451 0.000426395 0.00146268 0.000301279 0.000377922 0.00276851 -0.000843737 0.00430056 -0.000597551 0.00271915 1.2448e-05
internal_weight=7036 83 6953 1688 283 5265 4204 1405 240 1061 896 847 1359 2656 2576 439 1338 220 160 49 2290 244 2046 1981 79 1310 50 1548 46 408
internal_count=7036 83 6953 1688 283 5265 4204 1405 240 1061 896 847 1359 2656 2576 439 1338 220 160 49 2290 244 2046 1981 79 1310 50 1548 46 408
is_linear=0
shrinkage=0.03


Tree=12
num_leaves=31
num_cat=0
split_feature=17 7 7 17 9 7 12 14 17 21 17 21 14 11 21 4 4 6 15 20 4 20 7 9 20 17 6 7 7 21
split_gain=0.8202 0.787926 0.628442 0.793951 0.55885 0.450818 0.407448 0.390153 0.38668 0.54064 0.503764 0.836564 0.359683 0.356319 0.352396 0.341635 0.341091 0.341848 0.423373 0.675003 0.281698 0.530026 0.697225 0.497086 0.453875 0.65243 0.451732 0.391667 0.356872 0.463217
threshold=3.1031586463942848 2.4935702911853177 1.226231412885544 1.4111380818196422 -1.2361289767114416 2.140501107812359 -0.61855663699697028 0.036604673424477999 1.4468572858411497 -0.53589844960664823 0.400215755931355 3.5710986452293811 2.5967837308141202 -1.3152355920056251 0.75615817129186802 -0.063906237557982887 2.2360072111337694 2.3366342457477969 0.52192035349022892 -0.27314747927502109 0.26006469623676498 -0.48714395679456007 0.31923366611985832 0.24948447429719336 0.12361369742242496 -0.020207280771082841 -0.31999422483450202 -1.2214490967801079 0.37521591761036421 1.6561968258598043
decision_type=2 2 2 2 2 2 2 2 2 2 2 2 2 2 2 2 2 2 2 2 2 2 2 2 2 2 2 2 2 2
left_child=1 2 8 6 -5 -2 -4 -6 10 -10 11 20 16 -11 -9 -3 17 18 -8 -20 21 -1 26 -24 25 -22 27 -23 29 -26
right_child=5 15 3 4 7 -7 12 14 9 13 -12 -13 -14 -15 -16 -17 -18 -19 19 -21 24 22 23 -25 28 -27 -28 -29 -30 -31
leaf_value=-0.00058331272041452914 0.00034792666449953377 -0.00051930973605406007 0.0056253111928836249 -0.0037011982951938669 0.0013525531029871766 0.0041761230469307921 0.00020883975306030069 -0.0036572933376917984 0.0028957862561133116 0.0023565455514762208 -0.00077912833485440085 0.0054312959167943054 -0.0021162360786031388 -0.0011777102677970684 5.8998503645765033e-05 -0.0037391854379779667 0.0053734071715183162 0.004384081820809395 0.0057970741014619631 0.0010678798108696792 -0.0013135122439528009 -0.00072985266837259448 0.0040078312948923786 0.00055855780731010646 -0.00046766603807169661 0.0034089871218067505 -0.00055514848594281126 0.0006044626338878136 -0.0020519695383977633 0.0025486196489755519
leaf_weight=762 52 54 22 41 110 64 203 35 91 36 970 25 24 88 62 73 21 32 38 103 43 226 76 79 1413 65 553 1504 124 47
leaf_count=762 52 54 22 41 110 64 203 35 91 36 970 25 24 88 62 73 21 32 38 103 43 226 76 79 1413 65 553 1504 124 47
internal_value=-1.24388e-05 -5.48167e-05 -1.05855e-05 0.000846329 -0.000503468 0.00248765 0.00160868 0.000116895 -0.000108128 0.00113957 -0.000154223 -3.03217e-05 0.00139038 -0.00012639 -0.00125342 -0.00239519 0.0016104 0.00139088 0.00110253 0.00236688 -5.89564e-05 0.000105851 0.000322496 0.00227065 -0.00037241 0.0015015 0.000188822 0.000428387 -0.000502158 -0.000368344
internal_weight=7036 6920 6793 691 248 116 443 207 6102 215 5887 4917 421 124 97 127 397 376 344 141 4892 3200 2438 155 1692 108 2283 1730 1584 1460
internal_count=7036 6920 6793 691 248 116 443 207 6102 215 5887 4917 421 124 97 127 397 376 344 141 4892 3200 2438 155 1692 108 2283 1730 1584 1460
is_linear=0
shrinkage=0.03


Tree=13
num_leaves=31
num_cat=0
split_feature=6 7 15 7 12 1 9 21 6 21 21 12 15 6 20 6 23 11 21 23 6 20 7 21 11 12 7 21 13 9
split_gain=0.723468 0.859353 0.784413 0.518115 0.548896 0.30563 0.315305 0.809432 0.323465 0.316101 0.409541 0.301722 0.256644 0.230106 0.23217 0.66841 0.605249 0.290466 0.268929 1.10787 0.543659 0.494368 0.418102 0.370964 0.513521 0.296539 0.329092 0.547859 0.277451 0.390104
threshold=2.6405352438178489 2.4506654777374068 0.16481355812171961 1.226231412885544 -0.58659807451499202 2.5605434645125675 -1.2361289767114416 0.018475982965968446 1.523330434254208 2.1941682930779476 0.77684645468023672 2.7889967037078907 -0.18326281640002173 2.2692997689206975 -0.48714395679456007 1.1060396101483503 1.1286209825251163 -1.8986564514994761 -0.42766651526975813 -0.59266316378310047 1.1060396101483503 0.058340964955669601 0.91602120426101319 0.79635638403597253 -0.75814362621034315 1.4771736732658887 0.55583327988640974 3.1351203340578624 0.045689567081468437 -1.4018472185520221
decision_type=2 2 2 2 2 2 2 2 2 2 2 2 2 2 2 2 2 2 2 2 2 2 2 2 2 2 2 2 2 2
left_child=1 3 11 13 -5 6 7 -6 9 10 -8 -2 -11 14 15 16 17 -1 19 -16 21 23 -21 -20 -25 26 27 28 29 -23
right_child=2 -3 -4 4 5 -7 8 -9 -10 12 -12 -13 -14 -15 18 -17 -18 -19 20 22 -22 25 -24 24 -26 -27 -28 -29 -30 -31
leaf_value=0.0013399225412114169 0.0039144264014112154 -0.0025678508853425237 -0.00075317076408066923 0.0053657012950483855 0.0024434428101527354 -0.0024574238907763171 0.0017374598643362556 -0.003921070484168121 -0.00021600296702421699 0.00576602719146827 -0.00082343163116115926 0 0.0011294918312686737 -0.0032330176509669604 -0.0010168863252422345 0.00157444862221827 -0.0057221178419146488 -0.00069432151324176432 0.00052197742502881658 0.00089317634749775364 -0.0020479820451886413 -0.0017037278199056735 0.0051109520915676564 0.0013074542865883357 0.0071160739912250106 0.0013650782120462294 -0.0015214097823391753 0.0047889499335702669 -0.00041511948403561669 0.00034987935799760865
leaf_weight=66 102 121 67 23 32 27 246 40 129 27 71 20 21 21 344 132 21 1097 239 790 127 90 22 49 20 110 165 20 1746 1051
leaf_count=66 102 121 67 23 32 27 246 40 129 27 71 20 21 21 344 132 21 1097 239 790 127 90 22 49 20 110 165 20 1746 1051
internal_value=-1.19766e-05 -6.29538e-05 0.00181799 -1.74075e-05 0.000811231 0.000628649 0.000781572 -0.00105132 0.00105495 0.00151228 0.00115435 0.00325405 0.00380648 -0.000101452 -9.01065e-05 -0.000442917 -0.000670474 -0.000576194 6.54834e-06 0.000405449 -0.000120119 -4.90489e-05 0.00101176 0.00109716 0.00304239 -0.000160969 -0.000216632 -0.000141491 -0.000176851 0.00018513
internal_weight=7036 6847 189 6726 616 593 566 72 494 365 317 122 48 6110 6089 1316 1184 1163 4773 1156 3617 3490 812 308 69 3182 3072 2907 2887 1141
internal_count=7036 6847 189 6726 616 593 566 72 494 365 317 122 48 6110 6089 1316 1184 1163 4773 1156 3617 3490 812 308 69 3182 3072 2907 2887 1141
is_linear=0
shrinkage=0.03


Tree=14
num_leaves=31
num_cat=0
split_feature=17 7 7 17 4 7 3 14 17 21 17 21 22 12 4 4 6 15 20 3 4 7 20 20 20 20 17 4 21 7
split_gain=0.739967 0.709791 0.557237 0.715021 0.492516 0.405877 0.454711 0.36773 0.361144 0.49902 0.468101 0.764111 0.326887 0.319119 0.314949 0.311898 0.31394 0.401009 0.625885 0.292792 0.511822 0.673132 0.678598 0.570165 0.559826 0.553494 0.541732 0.438734 0.422565 0.321511
threshold=3.1031586463942848 2.4935702911853177 1.226231412885544 1.4111380818196422 -0.99255468803483338 2.140501107812359 -1.0752979293655038 2.5967837308141202 1.4468572858411497 -0.53589844960664823 0.400215755931355 3.5710986452293811 -1.3152355919973535 -0.61855663699697028 -0.063906237557982887 2.2360072111337694 2.3366342457477969 0.52192035349022892 -0.27314747927502109 -0.73814469980098829 0.26006469623676498 0.31923366611985832 -0.85373473232564046 -0.31096250220415961 0.28294613056419354 0.12361369742242496 0.098883737270063179 -0.56874374383457649 -1.2868399052860866 0.37521591761036421
decision_type=2 2 2 2 2 2 2 2 2 2 2 2 2 2 2 2 2 2 2 2 2 2 2 2 2 2 2 2 2 2
left_child=1 2 8 7 -5 -2 -7 13 10 -10 11 19 -11 -4 -3 16 17 -15 -19 28 21 22 -21 -23 -25 26 -22 -24 -1 -27
right_child=5 14 3 4 -6 6 -8 -9 9 12 -12 -13 -14 15 -16 -17 -18 18 -20 20 25 23 27 24 -26 29 -28 -29 -30 -31
leaf_value=0.00095237863093667566 0.00032952286322036271 -0.00047000139987426716 0.0052970727774150229 0.002900136569646761 -0.0010178814459114102 0.0057325920617432606 0.00019469078929247374 -0.0020277249250228654 0.0027912542056131285 0.0022660110875386279 -0.00074866452569312175 0.0051929096393732435 -0.0011192618563790277 0.0001679687385094466 -0.0035635023910129283 0.0051249740339850917 0.0041838290153297583 0.0055715990682521201 0.0010160207932283804 -0.0019482562476121406 -0.00048826382799568228 0.00029227791297814569 0.0012336220412099345 0.0068789616782393009 0.0018537401252765337 -0.00035665807534178266 0.0040193105353360358 0.00011352713746108976 -0.00085900501298062832 -0.0019553910369288427
leaf_weight=137 52 54 22 33 215 43 21 24 91 36 970 25 88 203 73 21 32 38 103 125 44 80 389 34 54 1456 50 1690 709 124
leaf_count=137 52 54 22 33 215 43 21 24 91 36 970 25 88 203 73 21 32 38 103 125 44 80 389 34 54 1456 50 1690 709 124
internal_value=-1.15814e-05 -5.18546e-05 -9.85115e-06 0.00079703 -0.000483482 0.00236306 0.00396541 0.0015206 -0.000101727 0.00110404 -0.00014629 -2.68343e-05 -0.000111233 0.00173144 -0.00227316 0.00152501 0.00131466 0.00103791 0.00226811 -5.42281e-05 5.12247e-05 0.000335323 0.000194251 0.00216699 0.00383496 -0.000349536 0.00187922 0.000324599 -0.000562049 -0.000484143
internal_weight=7036 6920 6793 691 248 116 64 443 6102 215 5887 4917 124 419 127 397 376 344 141 4892 4046 2372 2204 168 88 1674 94 2079 846 1580
internal_count=7036 6920 6793 691 248 116 64 443 6102 215 5887 4917 124 419 127 397 376 344 141 4892 4046 2372 2204 168 88 1674 94 2079 846 1580
is_linear=0
shrinkage=0.03


Tree=15
num_leaves=31
num_cat=0
split_feature=5 7 14 2 7 12 7 3 9 3 9 16 7 23 21 21 21 5 21 21 5 7 7 21 15 6 9 15 21 21
split_gain=0.835161 0.569092 0.480317 0.471198 0.386251 0.398111 0.375119 0.703589 0.461051 0.450118 0.430307 0.422805 0.363223 1.06657 1.04856 0.880944 0.809213 0.483333 0.351452 0.34251 0.505969 0.400614 0.35045 0.338247 0.305226 0.278599 0.278149 0.276229 0.327768 0.824879
threshold=2.9137408000344913 2.695237707364464 -1.7549660002755421 -1.4251546596505162 1.7846913137695217 1.6034745253391913 0.81805692998882651 0.81959067429234256 0.81024296438640453 -0.576191387096332 -0.86597224295085018 -1.1670546024818622 0.1332451349475153 -0.45973353109667314 3.2721442495672295 0.35311363127462841 1.2443309965846272 0.14103896004389962 0.40093217962050914 1.4856597088911256 -0.3680382838477752 0.55583327988640974 0.48876675167910322 0.49443265361301025 -1.2643432528599501 -0.36792225424860059 1.8787693027911161 -0.71161974598542843 -0.66039391335568765 -0.48303088896238772
decision_type=2 2 2 2 2 2 2 2 2 2 2 2 2 2 2 2 2 2 2 2 2 2 2 2 2 2 2 2 2 2
left_child=1 2 23 -4 -2 -6 8 27 9 24 -9 -11 14 15 -13 -14 17 -17 -3 20 21 -15 -22 -1 -5 -26 -10 -8 -29 -30
right_child=4 18 3 6 5 -7 7 10 26 11 -12 12 13 19 -16 16 -18 -19 -20 -21 22 -23 -24 -25 25 -27 -28 28 29 -31
leaf_value=0.0018177428976450429 0.00033268061670705182 -0.00020470336065017081 -0.0014455984840653082 0.00047748003799029848 0.0058046878274841448 0.0017643189910745273 0.00020411177991122093 -0.0041328926112168653 -0.0014180766089800761 -0.0029574889461587289 -0.00030668248602836915 0 0 0.0015451073702151714 0.006155584549523919 0.010709967323853268 0.00023936303068341599 0.0045407586847174214 -0.0036085293460535631 -0.0010262652971709256 0.00093547950910232564 0.0065242135585911231 -0.0013412175282578418 -0.002219141774546744 -0.00025122872737267889 -0.0013627118693495587 0.00013117417026831246 0.00021859535635076739 0.0079297010100154736 0.0016018147424038704
leaf_weight=189 69 51 209 200 37 62 235 30 354 39 241 3188 40 63 25 24 20 27 64 136 165 20 96 20 407 421 143 135 20 303
leaf_count=189 69 51 209 200 37 62 235 30 354 39 241 3188 40 63 25 24 20 27 64 136 165 20 96 20 407 421 143 135 20 303
internal_value=1.5891e-05 -3.48346e-05 3.88727e-07 -4.44125e-05 0.00210533 0.00330896 1.38472e-06 0.000546701 -9.59942e-05 -6.55636e-06 -0.000742682 0.000141977 0.00017462 0.000858374 4.78933e-05 0.00350918 0.00551302 0.0075179 -0.00212656 0.000238523 0.000747427 0.0027874 8.63909e-05 0.00141621 -0.000564701 -0.000820086 -0.000966345 0.00105528 0.00148533 0.00200525
internal_weight=7033 6865 6750 6541 168 99 6332 964 5368 4871 271 3843 3804 591 3213 111 71 51 115 480 344 83 261 209 1028 828 497 693 458 323
internal_count=7033 6865 6750 6541 168 99 6332 964 5368 4871 271 3843 3804 591 3213 111 71 51 115 480 344 83 261 209 1028 828 497 693 458 323
is_linear=0
shrinkage=0.03


Tree=16
num_leaves=31
num_cat=0
split_feature=5 7 14 2 4 7 7 3 9 4 15 4 7 9 16 7 4 15 3 2 21 6 21 7 15 6 7 4 21 21
split_gain=0.786696 0.535943 0.451609 0.443407 0.412719 0.363304 0.353002 0.662729 0.43369 0.426373 0.455671 0.523979 0.454146 0.404821 0.384379 0.465201 0.331572 0.760392 0.347577 0.353079 0.48517 1.09646 0.458845 1.17302 0.755966 0.625114 0.693288 0.345787 0.318588 0.286097
threshold=2.9137408000344913 2.695237707364464 -1.7549660002755421 -1.4251546596505162 0.54977162401343682 1.7846913137695217 0.81805692998882651 0.81959067429234256 0.81024296438640453 -1.0703300101195914 -0.14039764187841844 -1.3137686078539972 -0.17745739813464653 -0.86597224295085018 -1.1670546024818622 0.20897237053364812 -0.54950956214129498 0.077167793259698816 -0.576191387096332 -0.10695064773678761 2.0632313681495762 -0.16329371699853437 1.2897464187599381 -0.081272644742679021 0.13630626986458858 -0.005680058220961526 0.1332451349475153 -0.20608322234190807 0.49443265361301025 0.053261845501687326
decision_type=2 2 2 2 2 2 2 2 2 2 2 2 2 2 2 2 2 2 2 2 2 2 2 2 2 2 2 2 2 2
left_child=1 2 28 -4 -3 -2 8 -8 9 10 -5 12 -12 -9 15 -11 17 -16 -18 22 27 -22 23 29 25 26 -25 -21 -1 -20
right_child=5 4 3 6 -6 -7 7 13 -10 14 11 -13 -14 -15 16 -17 18 -19 19 20 21 -23 -24 24 -26 -27 -28 -29 -30 -31
leaf_value=0.0017632394194839244 0.00032271464199620244 -0.00054423854482803604 -0.0014022512732499908 -0.00029428692977915237 -0.0042715534546216563 0.0032108303763566299 0.0010240561647291257 -0.004009317741218793 -0.00093718099180703052 0 -0.0074580167367971906 -0.0005654557513754706 -0.0018196127380101918 -0.00029748583318722023 -2.0015430705432945e-05 -0.0060732847518885314 -0.00088836308615301461 0.0020370649756400899 -0.0001502629947382769 0.00066022278832607577 0.0053588951429553678 -0.00030250864233289298 -0.0014609604137498851 0.0032137882589718916 0.00057226022912422426 0.0021708361782731109 0.0099978789634920136 -0.00042454377391764269 -0.0021528987514216505 0.0010896572562371005
leaf_weight=189 69 69 209 302 46 99 693 30 497 24 27 62 28 241 453 20 362 249 636 311 46 90 97 31 99 73 27 1708 20 226
leaf_count=189 69 69 209 302 46 99 693 30 497 24 27 62 28 241 453 20 362 249 636 311 46 90 97 31 99 73 27 1708 20 226
internal_value=1.54669e-05 -3.37522e-05 4.16758e-07 -4.30114e-05 -0.00206364 0.00204338 1.40058e-06 0.000530411 -9.30498e-05 -6.28765e-06 -0.000921647 -0.00251373 -0.00465051 -0.000720783 7.92063e-05 -0.00270509 0.00010774 0.000705546 -4.70434e-06 9.00815e-05 -0.000137803 0.00159287 0.00050561 0.000683161 0.00258709 0.00408527 0.00643531 -0.00025594 0.00137329 0.000171429
internal_weight=7033 6865 6750 6541 115 168 6332 964 5368 4871 419 117 55 271 4452 44 4408 702 3706 3344 2155 136 1189 1092 230 131 58 2019 209 862
internal_count=7033 6865 6750 6541 115 168 6332 964 5368 4871 419 117 55 271 4452 44 4408 702 3706 3344 2155 136 1189 1092 230 131 58 2019 209 862
is_linear=0
shrinkage=0.03


Tree=17
num_leaves=31
num_cat=0
split_feature=5 7 14 2 4 7 12 7 3 9 4 17 9 4 5 21 3 2 21 7 5 21 4 21 17 2 21 4 3 21
split_gain=0.740705 0.504692 0.424683 0.417179 0.387983 0.341456 0.374768 0.331958 0.623946 0.408031 0.401793 0.382549 0.380841 0.344942 0.339727 0.334707 0.309442 0.375345 0.487694 1.08918 0.569919 0.553787 0.375444 0.872794 0.31257 0.30099 0.299246 0.290387 0.287496 0.401565
threshold=2.9137408000344913 2.695237707364464 -1.7549660002755421 -1.4251546596505162 0.54977162401343682 1.7846913137695217 1.8620157082004549 0.81805692998882651 0.81959067429234256 0.81024296438640453 -1.0703300101195914 0.21221844261912012 -0.86597224295085018 -0.54950956214129498 0.79038577077540195 -1.2868399052860866 -0.576191387096332 -0.10695064773678761 1.2897464187599381 -0.081272644742679021 -0.38790085746824504 0.35311363127462841 0.54977162401343682 1.0361638145604053 0.15253490140897738 -1.6625721953431178 -0.86515162449570138 -0.77437618077303538 -0.77611650745590322 -0.85402896612924351
decision_type=2 2 2 2 2 2 2 2 2 2 2 2 2 2 2 2 2 2 2 2 2 2 2 2 2 2 2 2 2 2
left_child=1 2 25 -4 -3 -2 -7 9 -9 10 11 15 -10 28 -13 -5 -15 18 19 -18 21 -21 23 -19 -25 27 -17 -1 29 -12
right_child=5 4 3 7 -6 6 -8 8 12 -11 13 14 -14 16 -16 26 17 22 -20 20 -22 -23 -24 24 -26 -27 -28 -29 -30 -31
leaf_value=0.0012515235606874501 0.00031304720647676212 -0.00052793499149716365 -0.0013602038558440247 0.0013641800142280506 -0.0041436847607269804 0.005336223246026648 0.0014860300969815549 0.00099333892574280107 -0.0038894378610475119 -0.00090907122116863528 0.0007445464116588522 -0.0030280737226066703 -0.00028856495620118095 -0.00086730968301821938 0.00060954327801129773 -0.001454414501370463 0.00017093034943739809 -4.8494471988764472e-05 -0.0015177123602943151 0.0021990774000459662 0.0017650332553005375 0.0093310284992652159 -0.00066841008914876577 0.0045697071169093677 4.040047581960897e-06 0.0025939207848366332 0.0014890724085924035 -0.0020661192565025292 0.001094985491142308 -0.001907135721083298
leaf_weight=82 69 69 209 80 46 41 58 693 30 497 142 104 241 365 28 170 869 1243 100 22 190 20 864 52 20 94 37 33 485 80
leaf_count=82 69 69 209 80 46 41 58 693 30 497 142 104 241 365 28 170 869 1243 100 22 190 20 864 52 20 94 37 33 485 80
internal_value=1.49245e-05 -3.28215e-05 3.23107e-07 -4.17771e-05 -0.00200264 0.00198268 0.0031146 1.28712e-06 0.000514302 -9.02904e-05 -6.11539e-06 -0.000894714 -0.000699539 7.68595e-05 -0.00223387 -0.000267783 -3.71231e-05 5.16627e-05 0.000478161 0.000662285 0.00248895 0.0056806 -0.000182045 0.000135259 0.00334484 0.00133166 -0.000913333 0.000272472 0.000684791 -0.000197936
internal_weight=7033 6865 6750 6541 115 168 99 6332 964 5368 4871 419 271 4452 132 287 3745 3380 1201 1101 232 42 2179 1315 72 209 207 115 707 222
internal_count=7033 6865 6750 6541 115 168 99 6332 964 5368 4871 419 271 4452 132 287 3745 3380 1201 1101 232 42 2179 1315 72 209 207 115 707 222
is_linear=0
shrinkage=0.03


Tree=18
num_leaves=31
num_cat=0
split_feature=6 7 4 9 14 19 7 17 15 7 19 17 21 6 21 4 7 15 21 3 21 15 23 4 15 7 4 3 21 7
split_gain=0.53711 0.686741 0.601213 0.447493 0.430473 0.433085 0.363778 0.457058 0.345514 0.343577 0.333712 0.320972 0.408056 0.310404 0.619391 0.313073 0.476505 0.927426 0.567964 0.537305 0.484803 0.415015 0.356521 0.281461 0.778347 0.450823 0.308476 0.48131 0.399081 0.361455
threshold=2.6405352438178489 2.4935702911853177 2.5234868974197062 0.31535172009884299 -1.7549660002755421 -1.4251546596505162 1.226231412885544 1.4111380818196422 -0.14039764187841844 1.3820050383578364 -1.6625721953431178 1.4111380818196422 0.64225608593592354 -0.096883853047870075 3.2721442495672295 -0.026240467145059135 -0.1563014001425852 -0.64925510561634747 2.0632313681495762 -0.053145238332001528 1.0661751959106329 0.050730799011556388 -0.14734673851551625 -1.0703300101195914 0.25998218862580497 0.63831558922458209 1.2081822732702934 0.53654250790830826 1.8053989642639254 -0.46342839987221235
decision_type=2 2 2 2 2 2 2 2 2 2 2 2 2 2 2 2 2 2 2 2 2 2 2 2 2 2 2 2 2 2
left_child=1 4 3 -2 10 -6 11 9 -9 -8 -1 13 -13 14 15 21 18 19 -17 -18 22 -7 -19 24 25 -15 27 28 29 -25
right_child=2 -3 -4 -5 5 6 7 8 -10 -11 -12 12 -14 23 -16 16 17 20 -20 -21 -22 -23 -24 26 -26 -27 -28 -29 -30 -31
leaf_value=0.00020928513992604617 0.00062755234393658524 -0.0024968114062412445 -0.0019264571252085492 0.0037994743117166583 -0.001366361841519913 -9.1875786734695386e-05 0.0037432411821873468 0.00072732339976707089 -0.0020721891906469586 0.00096974935932501354 0.00266346071257729 0.0022651265268268535 -0.0010834046368571844 -0.0016837662821993806 0.0044940619552309132 -0.00055638605830878366 0.001598342695067842 0.0037972247377693483 0.0042752012242963412 0.0085211341861468649 -0.0017572358354753686 0.00078670562666270216 0.00034092556325083373 -0.0017716574972483894 -0.005934428890480156 0.0015732449751051207 -0.0010913278271169385 0.00088688277137995793 -0.003666123872836686 -5.3037540726336977e-05
leaf_weight=111 79 100 36 87 213 1120 47 82 75 332 95 111 45 126 28 1474 23 34 22 20 82 845 139 129 30 54 337 345 33 779
leaf_count=111 79 100 36 87 213 1120 47 82 75 332 95 111 45 126 28 1474 23 34 22 20 82 845 139 129 30 54 337 345 33 779
internal_value=1.45078e-05 -3.01553e-05 0.00153898 0.00230929 6.08174e-06 -3.61082e-05 8.32715e-06 0.0007563 -0.000591395 0.0013225 0.00135636 -6.05756e-05 0.00127991 -9.83407e-05 5.60764e-05 2.2102e-05 -0.000263559 0.000828029 -0.000483047 0.00490015 0.000127946 0.000284431 0.00103933 -0.00041899 -0.00145567 -0.000689674 -0.000282924 -6.86789e-05 -0.000422262 -0.000300675
internal_weight=7033 6831 202 166 6731 6525 6312 536 157 379 206 5776 156 5620 3787 3759 1794 298 1496 43 255 1965 173 1833 210 180 1623 1286 941 908
internal_count=7033 6831 202 166 6731 6525 6312 536 157 379 206 5776 156 5620 3787 3759 1794 298 1496 43 255 1965 173 1833 210 180 1623 1286 941 908
is_linear=0
shrinkage=0.03


Tree=19
num_leaves=31
num_cat=0
split_feature=5 7 14 2 7 12 7 3 2 3 17 16 9 12 7 7 2 7 21 23 21 21 17 7 21 5 9 21 21 23
split_gain=0.673285 0.451034 0.375423 0.368483 0.315657 0.344833 0.29529 0.533512 0.4002 0.385013 0.39372 0.379731 0.394547 0.361485 0.38577 0.369731 0.352004 0.3365 0.890764 0.874095 0.783069 0.663628 0.440294 0.312017 0.302341 0.396245 0.299875 0.291355 0.288332 0.286567
threshold=2.9137408000344913 2.695237707364464 -1.7549660002755421 -1.4251546596505162 1.7846913137695217 1.6034745253391913 0.7864072697954293 1.1858394711356532 1.1869952453083965 -0.576191387096332 0.98382849823337226 -1.1670546024818622 0.81024296438640453 1.1856691032942839 1.226231412885544 2.3065750912601879 0.61531175485167433 0.1332451349475153 3.2721442495672295 -0.45973353109667314 0.35311363127462841 1.2443309965846272 0.42821148754461641 1.0005061587816575 1.5664091816900034 -0.3680382838477752 -1.1905962579704579 0.40093217962050914 0.49443265361301025 1.2426305999314102
decision_type=2 2 2 2 2 2 2 2 2 2 2 2 2 2 2 2 2 2 2 2 2 2 2 2 2 2 2 2 2 2
left_child=1 2 28 -4 -2 -6 9 8 13 10 29 -11 17 14 -8 16 -16 18 -13 20 -19 22 -22 -10 25 -21 -9 -3 -1 -5
right_child=4 27 3 6 5 -7 7 26 23 11 -12 12 -14 -15 15 -17 -18 19 -20 24 21 -23 -24 -25 -26 -27 -28 -29 -30 -31
leaf_value=0.0016233278901641524 0.00028329379567485603 -0.00013904187122064618 -0.0012787320637217638 -0.00065167762420863067 0.0053013404893545767 0.0015376004276702693 1.8584453649180074e-07 -0.0041736047625609111 0.0045855582622796537 -0.0028944904812197186 0.0014597423302448872 -1.8851217082225752e-06 -0.00092022934522797311 -0.0012269461543834943 0.0026576702003801638 -0.0011233725741474556 -0.00019648479182083326 -6.0871976643726402e-05 0.0056709547741598341 0.0025343188255867637 0.0093189845241581481 0.00031955307085456238 0.0033471365429690518 0.0013988372875884342 -0.0010132152603479188 0.00012705933809753451 -0.00045074964052647742 -0.0032424863941194538 -0.0021016932059246211 -0.0042980180130298452
leaf_weight=189 69 51 209 1063 37 62 281 22 38 39 79 3188 329 93 182 37 47 40 25 82 30 20 21 121 123 258 194 64 20 20
leaf_count=189 69 51 209 1063 37 62 281 22 38 39 79 3188 329 93 182 37 47 40 25 82 30 20 21 121 123 258 194 64 20 20
internal_value=1.41048e-05 -3.13964e-05 0 -3.96445e-05 0.00189019 0.00297845 7.99785e-07 0.000470136 0.000829637 -8.82382e-05 -0.000571141 4.61004e-05 7.47616e-05 0.000488758 0.000786113 0.00160477 0.00205896 0.000162017 4.14961e-05 0.000831289 0.00322329 0.00511321 0.00693006 0.0021817 0.000250777 0.000717029 -0.000845568 -0.00189356 0.00125168 -0.000722176
internal_weight=7033 6865 6750 6541 168 99 6332 1015 799 5317 1162 4155 4116 640 547 266 229 3787 3213 574 111 71 51 159 463 340 216 115 209 1083
internal_count=7033 6865 6750 6541 168 99 6332 1015 799 5317 1162 4155 4116 640 547 266 229 3787 3213 574 111 71 51 159 463 340 216 115 209 1083
is_linear=0
shrinkage=0.03


Tree=20
num_leaves=31
num_cat=0
split_feature=17 7 7 3 7 17 17 20 23 4 23 14 21 7 9 4 14 3 4 7 21 7 4 20 20 12 5 12 5 4
split_gain=0.560382 0.536317 0.355874 0.414524 0.315353 0.537145 0.389814 0.441019 0.630766 0.589753 0.444843 0.435685 1.06053 0.396859 0.362141 0.360912 0.339053 0.335325 0.314365 0.303337 0.780936 0.554506 0.37461 0.300907 0.286405 0.279712 0.272135 0.260687 0.377556 0.216381
threshold=3.1031586463942848 2.4935702911853177 2.140501107812359 -1.2062089055710341 1.226231412885544 1.4111380818196422 1.928279851743351 -0.48714395679456007 1.1286209825251163 0.042076165755107232 -0.62614649594277672 -0.29498760027969778 -0.12763714286706115 -0.86301754378965934 0.4287296692155802 -0.957371742210542 -1.582377774106267 0.54794524682039991 -0.56874374383457649 0.37521591761036421 2.1941682930779476 0.42604639983586179 2.2970441453344375 -1.1347969697273694 -0.88364298629668137 -0.63375108310755712 0.55958806509340897 1.0000000180025095e-35 0.20832866943768316 -0.275291175120909
decision_type=2 2 2 2 2 2 2 2 2 2 2 2 2 2 2 2 2 2 2 2 2 2 2 2 2 2 2 2 2 2
left_child=1 4 -2 -4 6 25 7 8 16 10 27 12 13 -11 18 -7 -1 -14 -12 20 -13 -21 -22 -3 29 -6 -26 28 -9 -17
right_child=2 23 3 -5 5 15 -8 9 -10 11 14 19 17 -15 -16 24 -18 -19 -20 21 22 -23 -24 -25 26 -27 -28 -29 -30 -31
leaf_value=0.00063742504644150749 0.00021706689004711606 -0.00041021271635764754 0.0053605036766533436 0.00018922919268393282 0.0045529097302266855 0.002147119230295405 0.0017315648900492065 0.00052164487864800248 -0.0050686140772737429 0.00074894048310395335 0.0017596929358849995 -0.00040887305560265792 0.0012854390728878344 -0.0023735071474989835 -0.00024632492562959979 -0.0008222687017716122 -0.00072624575258408092 0.0044717722402041792 0.00061583937205352197 -0.0047852877477942415 0.0047295376130767593 -0.00084202817784247088 0 -0.0033828216318587765 -0.0034192293240979514 0.0010407888006169921 0.00014348555679395952 -0.0012881810823326175 -0.0024848645319932583 -0.0047094147171149051
leaf_weight=193 56 62 41 23 22 39 105 289 28 53 284 1775 248 110 321 28 1024 35 981 36 40 334 25 66 22 427 143 180 43 28
leaf_count=193 56 62 41 23 22 39 105 289 28 53 284 1775 248 110 321 28 1024 35 981 36 40 334 25 66 22 427 143 180 43 28
internal_value=-9.0052e-06 -4.45825e-05 0.00202219 0.00355207 -7.98069e-06 0.000590354 -7.79793e-05 -0.00011018 -0.000612874 2.0847e-05 0.00039738 -0.000275454 0.000576826 -0.00134 0.000646261 -0.000486429 -0.000507486 0.00169155 0.000875131 -0.000448828 -0.000289052 -0.00123499 0.00293249 -0.00196783 -0.000965502 0.00122053 -0.000315156 -0.000367685 0.000122583 -0.00282425
internal_weight=7061 6941 120 64 6813 709 6104 5999 1245 4754 2098 2656 446 163 1586 260 1217 283 1265 2210 1840 370 65 128 221 449 165 512 332 56
internal_count=7061 6941 120 64 6813 709 6104 5999 1245 4754 2098 2656 446 163 1586 260 1217 283 1265 2210 1840 370 65 128 221 449 165 512 332 56
is_linear=0
shrinkage=0.03


Tree=21
num_leaves=31
num_cat=0
split_feature=17 7 7 14 2 7 20 17 23 21 6 14 7 14 2 15 7 17 20 9 20 6 21 9 21 21 7 15 6 15
split_gain=0.528128 0.505049 0.334799 0.300146 0.353814 0.345648 0.468127 0.458891 0.45736 0.338776 0.580922 0.562838 0.410087 0.398601 0.396429 0.313124 0.455601 0.438886 0.313592 0.297027 0.282769 0.257107 0.256857 0.370025 0.252633 0.452745 0.483999 0.622341 0.428679 0.245644
threshold=3.1031586463942848 2.4935702911853177 2.140501107812359 -1.6213971264751892 -1.4251546596505162 1.226231412885544 -0.79564072163443311 1.4111380818196422 1.261577489701402 -0.42766651526975813 1.0671920550338945 -0.66270188440364897 0.91602120426101319 2.1874251184295859 -0.2801290014569407 0.25998218862580497 0.63831558922458209 0.4421825701289987 -1.0996981683003904 0.25796375894614298 -1.1347969697273694 0.64491939049374258 0.15869492451971021 -0.046187454158278608 -0.072945856063711859 1.0022780358860139 -0.02087583586632482 0.23418461616139749 0.26338387027369387 -0.14039764187841844
decision_type=2 2 2 2 2 2 2 2 2 2 2 2 2 2 2 2 2 2 2 2 2 2 2 2 2 2 2 2 2 2
left_child=1 3 -2 -1 -5 6 8 22 15 11 14 21 19 -12 24 16 -6 -17 -18 -13 -3 -8 23 -7 -11 26 -26 28 -28 -9
right_child=2 20 -4 4 5 7 9 29 -10 10 13 12 -14 -15 -16 17 18 -19 -20 -21 -22 -23 -24 -25 25 -27 27 -29 -30 -31
leaf_value=0.00095520475158921369 0.00021056648688689672 -0.00039792614813516104 0.0034471748902080309 -0.0013316798789918341 -0.0007934536404514015 0.0053462578268288685 -0.001110819021571452 0.00073397904433434831 -0.0052569148417061827 -0.00011314036433896123 -0.0026777237798840075 0.0010641799953663514 0.00460382392993605 0.0013384075556753265 -0.000229321609824235 -0.00096510020462479799 0.0020602218686518992 -0.0052158171171167757 -0.0011696264655713037 -6.067290564473062e-05 -0.0032814905337380665 0.0011906032110166676 0.00054080782015017057 0.0014838717844445424 0.00065697514304751412 -0.00073741282261978653 0.0068278189536136406 0.00016249427493067491 0.0023936470723895861 -0.0014218699636154662
leaf_weight=279 56 62 64 188 501 27 243 79 20 357 123 636 25 26 2645 90 98 30 36 309 66 52 231 160 291 116 38 51 47 115
leaf_count=279 56 62 64 188 501 27 243 79 20 357 123 636 25 26 2645 90 98 30 36 309 66 52 231 160 291 116 38 51 47 115
internal_value=-8.69183e-06 -4.32425e-05 0.00196317 -7.71057e-06 -4.92999e-05 -1.08163e-05 -8.3618e-05 0.000666284 -0.00076936 2.29592e-05 -0.000121507 0.000447172 0.000797574 -0.00195637 -4.34868e-05 -0.000645831 -0.000374296 -0.00205622 0.0011699 0.000693229 -0.00190958 -0.000694713 0.00122801 0.00206014 0.000499293 0.000907413 0.00136134 0.00284485 0.00441693 -0.000528591
internal_weight=7061 6941 120 6813 6534 6346 5734 612 775 4959 3694 1265 970 149 3545 755 635 120 134 945 128 295 418 187 900 543 427 136 85 194
internal_count=7061 6941 120 6813 6534 6346 5734 612 775 4959 3694 1265 970 149 3545 755 635 120 134 945 128 295 418 187 900 543 427 136 85 194
is_linear=0
shrinkage=0.03


Tree=22
num_leaves=31
num_cat=0
split_feature=17 7 7 3 20 4 7 20 7 17 23 16 17 23 21 20 7 22 20 3 9 2 20 7 3 17 2 7 7 17
split_gain=0.497346 0.477696 0.314662 0.390128 0.300791 0.283413 0.483181 0.701547 0.676629 0.630483 0.487793 0.461665 0.425924 0.384965 0.624743 0.780969 0.395339 0.329037 0.28407 0.425564 0.379026 0.396772 0.375979 0.34581 0.266213 0.2649 0.255163 0.295311 0.288155 0.253518
threshold=3.1031586463942848 2.695237707364464 2.140501107812359 -1.2062089055710341 -1.1347969697273694 0.2730452933587792 0.8293886538544909 0.06959223286017284 0.33630439745379442 1.4468572858411497 1.2767504812401176 -1.1670546024818622 0.056480424271734934 -0.53293026806518673 -0.19556397928611266 -0.63176308326025887 1.0497283327218896 -0.98199443267562614 -2.3715478356410231 -0.089557349779464709 1.6017529134421487 -0.84892045606597055 -1.0365916901131229 1.0257501843447205 -0.42744196089797964 1.6517488801505784 1.6542134070834507 2.401810277850783 2.230566755797935 0.21221844261912012
decision_type=2 2 2 2 2 2 2 2 2 2 2 2 2 2 2 2 2 2 2 2 2 2 2 2 2 2 2 2 2 2
left_child=1 5 -2 -4 -3 6 7 9 -9 10 12 -7 -1 14 17 16 -16 -13 19 -8 21 22 25 -22 -24 -20 28 -28 -15 -23
right_child=2 4 3 -5 -6 11 18 8 -10 -11 -12 13 -14 26 15 -17 -18 -19 20 -21 23 29 24 -25 -26 -27 27 -29 -30 -31
leaf_value=-8.7857533229199994e-05 0.00020426076369977651 -0.00043961503595857528 0.0050969162735625771 8.0609332600777784e-05 -0.0036333108965917833 -0.0040963719841888256 0.00043911706545405124 0.00026653253373941469 0.0034279209782927342 0.0017906819432784167 -0.0042433939244755714 0.00034327281635150461 -0.0011188520593872994 -0.00044050308634556922 0.00071882052481481704 0.0025149209911518341 -0.0043514709540483244 -0.0036141416779154477 -5.5271763318422088e-05 -0.0046138891722284142 0.00169838969584121 0.00081947728977081215 -0.0028026720814468831 -0.0019508431895596796 0.0010415155127305876 0.0036458610238992513 0.00020685493978800368 0.0040161237580729498 -0.0036327127108735768 0.0024522756610072375
leaf_weight=824 56 58 41 23 53 28 56 1980 63 103 33 36 651 1856 29 177 25 37 36 20 36 140 48 64 23 31 237 20 26 251
leaf_count=824 56 58 41 23 53 28 56 1980 63 103 33 36 651 1856 29 177 25 37 36 20 36 140 48 64 23 31 237 20 26 251
internal_value=-8.40208e-06 -4.19432e-05 0.00190512 0.00334392 -0.00199343 -9.76001e-06 0.000135283 -2.64418e-06 0.000365652 -0.000471557 -0.000628171 -0.000266834 -0.000544972 -0.000221549 0.000774074 0.00154517 -0.00157679 -0.0016237 0.000854311 -0.000855515 0.00106578 0.00138767 0 -0.000606765 -0.00151546 0.00161536 -0.000364481 0.000516411 -0.000486388 0.00187567
internal_weight=7061 6941 120 64 111 6830 4359 3654 2043 1611 1508 2471 1475 2443 304 231 54 73 705 76 629 529 138 100 71 67 2139 257 1882 391
internal_count=7061 6941 120 64 111 6830 4359 3654 2043 1611 1508 2471 1475 2443 304 231 54 73 705 76 629 529 138 100 71 67 2139 257 1882 391
is_linear=0
shrinkage=0.03


Tree=23
num_leaves=31
num_cat=0
split_feature=17 7 7 3 14 19 7 6 21 4 23 4 23 21 17 17 7 11 6 14 12 7 17 21 7 21 15 3 15 5
split_gain=0.46876 0.452392 0.296021 0.366762 0.284069 0.323128 0.310939 0.427875 0.395804 0.310196 0.434382 0.400146 0.411272 0.895192 0.40331 0.450709 0.434452 0.402546 0.312053 0.416741 0.351434 0.306487 0.627696 0.39898 0.394761 0.414715 0.304097 0.265881 0.260494 0.355581
threshold=3.1031586463942848 2.4935702911853177 2.140501107812359 -1.3227945328523105 -1.6213971264751892 -1.4251546596505162 1.226231412885544 0.54094759927160008 0.6960118776325469 -1.0242923290494228 1.0987099311808304 0.049444849616233959 -0.45973353109667314 -0.12763714286706115 -0.64237486983881686 1.4111380818196422 -1.2214490967801079 -1.1002886368970324 1.1060396101483503 2.1874251184295859 1.4771736732658887 0.55583327988640974 0.17617719543591873 -1.2868399052860866 0.89878764288684254 -0.62441221971617444 0.15627087569539397 0.54794524682039991 -0.15858373844002344 3.155737405045095
decision_type=2 2 2 2 2 2 2 2 2 2 2 2 2 2 2 2 2 2 2 2 2 2 2 2 2 2 2 2 2 2
left_child=1 4 -2 -4 -1 -6 9 8 -8 10 21 14 13 17 16 -16 -11 -13 20 -20 -14 22 23 -7 25 -23 -24 -15 -9 -30
right_child=2 -3 3 -5 5 6 7 28 -10 11 -12 12 18 27 15 -17 -18 -19 19 -21 -22 24 26 -25 -26 -27 -28 -29 29 -31
leaf_value=0.00092973865801593617 0.00019814384879574261 -0.0018070503077971417 0.0050046990042148234 0.00017975433180842903 -0.0012730172735733979 0.0017334898121455515 0.0026596915169318069 0.00085864080315652634 -6.5212652921549087e-05 -0.00075817338596076552 -0.0050696050290039169 0.00024463249478615855 -0.00041483927338629517 0.0013832553382512511 -0.00017649856960380087 0.0024370820448702374 0.00097101047992999463 -0.0030207527200139294 -0.0031735256837003099 0.0010899139390107091 0.0013990815967827529 0.00046295120855323037 -0.0021031223855584704 -0.00083039213009848559 -0.0019879045782799764 0.00479176524641185 -0.0062790682088972915 0.0046592267140232284 -0.001160124697419408 0.002441593441032776
leaf_weight=279 56 128 40 24 188 69 139 192 70 151 20 69 2091 217 1331 62 898 64 76 27 100 93 99 255 40 26 20 26 183 28
leaf_count=279 56 128 40 24 188 69 139 192 70 151 20 69 2091 217 1331 62 898 64 76 27 100 93 99 255 40 26 20 26 183 28
internal_value=-8.10172e-06 -4.0677e-05 0.0018496 0.00324525 -7.02474e-06 -4.7497e-05 -1.06988e-05 0.000631476 0.0017331 -7.97723e-05 -0.000712306 -2.20976e-06 -0.000256622 0.000659889 0.000274727 -5.78526e-05 0.000719192 -0.00130523 -0.000408174 -0.00202685 -0.00033062 -0.000561745 -0.000969708 -0.000274757 0.000555945 0.00143716 -0.00283483 0.00174788 5.24308e-05 -0.00066703
internal_weight=7061 6941 120 64 6813 6534 6346 612 209 5734 622 5112 2670 376 2442 1393 1049 133 2294 103 2191 602 443 324 159 119 119 243 403 211
internal_count=7061 6941 120 64 6813 6534 6346 612 209 5734 622 5112 2670 376 2442 1393 1049 133 2294 103 2191 602 443 324 159 119 119 243 403 211
is_linear=0
shrinkage=0.03


Tree=24
num_leaves=31
num_cat=0
split_feature=4 6 21 4 7 20 14 4 20 7 6 23 20 21 21 16 21 7 7 9 15 4 4 7 11 4 7 7 4 20
split_gain=0.413336 0.407922 0.358327 0.387536 0.414964 0.684633 0.686796 0.578642 0.575891 0.383993 0.383322 0.378597 0.478523 0.684683 0.33708 0.329345 0.328195 0.40488 0.298068 0.297154 0.295971 0.309694 0.28351 0.280827 0.273245 0.25242 0.288093 0.2599 0.244604 0.284429
threshold=3.237327338931753 3.725253436222689 2.8613045598747999 0.33446461476843103 0.3567964914617518 -0.82447704447242887 -0.31417553339458953 -1.3854388525310799 0.03204301551582129 -0.0515821628792879 -0.31999422483450202 -0.45973353109667314 -0.68080716542189956 -0.19556397928611266 1.2897464187599381 -1.1670546024818622 -0.45804064037843223 0.48876675167910322 1.0497283327218896 0.28721854293676324 0.35280835313787745 1.5019379755365292 -0.25042109010342195 -1.2562799446126893 -0.98199443267090014 -1.3664099999484371 0.63831558922458209 1.4688934771227788 -0.67645022522056675 0.3368917991407912
decision_type=2 2 2 2 2 2 2 2 2 2 2 2 2 2 2 2 2 2 2 2 2 2 2 2 2 2 2 2 2 2
left_child=1 2 3 4 5 6 -1 -8 25 -4 14 12 18 24 19 -13 -10 -18 -5 22 21 -11 23 -7 -14 26 -6 -28 -12 -30
right_child=-2 -3 9 11 8 10 7 -9 16 20 28 15 13 -15 -16 -17 17 -19 -20 -21 -22 -23 -24 -25 -26 -27 27 -29 29 -31
leaf_value=-0.00049652119766343346 -0.002137476343441348 0.0025644535455792983 0.0040424331132410552 0.00059381341246077387 -0.00033033360542472585 -0.00078093452639629141 -0.0078208729424583383 -0.0020666615151662283 0.0056583481573402811 0.0001305747431409786 0.00070115031727013008 -0.0037726505002623348 0.00044349972334260313 0.0021311098584192814 0.0042492295887821638 -0.00048206776027767342 0.0050070128719085253 0.00090642481967616274 -0.0032866277701298048 -0.00045524616267787684 -0.00056306028483146689 0.0052629744322664693 0.00014171490063213032 0.001176058826536152 -0.0034924151531010384 5.6294399349962109e-05 0.0028043000529746828 0.00055128376775929143 -0.001218887500259581 0
leaf_weight=461 81 56 38 30 84 72 20 87 22 25 148 28 30 185 20 1819 27 125 40 350 76 20 857 612 31 832 101 92 360 332
leaf_count=461 81 56 38 30 84 72 20 87 22 25 148 28 30 185 20 1819 27 125 40 350 76 20 857 612 31 832 101 92 360 332
internal_value=-7.80627e-06 1.65081e-05 -3.70263e-06 -3.72306e-05 0.000117944 -5.83574e-05 -0.00100713 -0.00317652 0.000576325 0.00140309 0.000136476 -0.000368757 0.000586155 0.00121578 0.000372064 -0.000533778 0.00218342 0.00165736 -0.00158231 0.000329249 0.000546774 0.00248477 0.000509392 0.00096559 -0.00151006 0.000321296 0.00110612 0.0017467 -0.000395898 -0.000634929
internal_weight=7061 6980 6924 6765 4602 3319 568 107 1283 159 2751 2163 316 246 1911 1847 174 152 70 1891 121 45 1541 684 61 1109 277 193 840 692
internal_count=7061 6980 6924 6765 4602 3319 568 107 1283 159 2751 2163 316 246 1911 1847 174 152 70 1891 121 45 1541 684 61 1109 277 193 840 692
is_linear=0
shrinkage=0.03


Tree=25
num_leaves=31
num_cat=0
split_feature=4 7 17 21 17 20 21 7 11 6 7 12 2 14 16 9 21 21 2 20 9 4 7 21 20 6 21 7 6 14
split_gain=0.452556 0.589948 0.794206 1.03014 0.649196 0.567065 0.6973 0.450987 0.404166 0.355784 0.327135 0.312319 0.301183 0.345341 0.296598 0.293768 0.286933 0.274401 0.273594 0.270979 0.265112 0.263581 0.373516 0.265586 0.41324 0.275677 0.288834 0.345159 0.389326 0.262253
threshold=0.26006469623676498 0.33630439745379442 -0.22754751897174194 2.1941682930779476 1.3001672546514564 1.0000000180025095e-35 -0.46754310544125227 2.695237707364464 -1.1157054895953615 3.725253436222689 0.5002110339928979 2.0917528058153612 0.85576529703960669 -2.1652427555009028 -1.1670546024818622 0.22864177358932067 -0.050123244710680297 0.83530260253010524 2.0036388660879694 -1.0629731101636566 -1.1539422017490002 -1.3854388525310799 0.63831558922458209 -1.0543059883594661 -2.2944632031474974 0.91178673863201765 -0.24218700928682149 1.1177653161285999 0.45198708131035631 -1.5579339696410359
decision_type=2 2 2 2 2 2 2 2 2 2 2 2 2 2 2 2 2 2 2 2 2 2 2 2 2 2 2 2 2 2
left_child=1 2 3 15 16 9 -7 8 17 11 -8 12 13 -3 -10 -1 29 -2 -16 -14 -19 22 -15 -23 -25 26 -26 -28 -29 -4
right_child=7 5 4 -5 -6 6 10 -9 14 -11 -12 -13 19 21 18 -17 -18 20 -20 -21 -22 23 -24 24 25 -27 27 28 -30 -31
leaf_value=0.00042572365769068265 0.0015150177444062786 0.0031595759838819507 0.00025082350342882495 0.0065956050234955623 0.0026985180266847967 0.0076576381054387155 0.004233642742857118 -0.0029145085343869849 -0.0036874603606853245 0.0035265030663821006 0.00082845483312349018 -0.0012521587496491602 0.0003871432712567471 -0.00047987011829746029 -0.0004277198375386784 -0.00036195390940649307 -4.1623790013851732e-05 -0.0035893749898827784 0.00079064744860058659 0.0032877547897544397 0.00043276652481027961 0.0018428464308186069 0.0021352583639914048 -0.0042931112046964565 -0.0014736996264478148 0.00060133020598176633 -0.00079590257175683971 0.0056284675925080451 -1.4979730429216301e-05 -0.0015089114640910028
leaf_weight=1646 183 38 85 23 46 20 34 58 24 34 114 93 57 76 2027 571 240 20 179 65 52 59 131 22 183 262 72 20 22 556
leaf_count=1646 183 38 85 23 46 20 34 58 24 34 114 93 57 76 2027 571 240 20 179 65 52 59 131 22 183 262 72 20 22 556
internal_value=2.18051e-05 0.000204007 -1.60786e-05 0.000288572 -0.000755423 0.000741608 0.00237247 -0.000297207 -0.000234797 0.000497166 0.00163331 0.000400493 0.000556209 0.000359303 -0.000365138 0.000221493 -0.000939456 0.000892985 -0.000327467 0.00195855 -0.000646315 0.000229772 0.00116086 -6.68251e-05 -0.000266197 -0.000101608 -0.0007318 0.000433099 0.0026081 -0.00127088
internal_weight=7012 4469 3167 2240 927 1302 168 2543 2485 1134 148 1100 1007 885 2230 2217 881 255 2206 122 72 847 207 640 581 559 297 114 42 641
internal_count=7012 4469 3167 2240 927 1302 168 2543 2485 1134 148 1100 1007 885 2230 2217 881 255 2206 122 72 847 207 640 581 559 297 114 42 641
is_linear=0
shrinkage=0.03


Tree=26
num_leaves=31
num_cat=0
split_feature=4 21 7 4 15 7 4 15 4 7 23 7 7 5 14 2 23 5 21 21 7 7 7 21 15 4 21 2 21 7
split_gain=0.432774 0.660596 0.595585 0.447207 0.430575 0.639496 0.408087 0.454049 0.369511 0.541486 0.341599 0.346088 0.31978 0.281151 0.277877 0.273961 0.480122 0.362615 0.320702 0.459718 0.271636 0.247745 0.245982 0.497067 0.44439 0.619089 0.39204 0.274086 0.22887 0.209929
threshold=1.02549680415871 3.2721442495672295 0.59137686539767775 -1.3854388525310799 -0.24315227458824126 1.3820050383578364 -1.0703300101195914 -0.14039764187841844 -1.3137686078539972 -0.02087583586632482 -0.71791045569938794 -0.1563014001425852 2.695237707364464 2.0936363805488352 -0.54371923848731984 0.82568403131169199 1.1286209825251163 3.69806526429671 -0.38027236675188819 -0.6697067230721172 0.22297265097232208 1.7846913137695217 -0.5534032921231572 0.98392368540729269 -0.37949878377079305 -0.14595941378376343 2.0632313681495762 0.55650666395884241 1.6561968258598043 0.33630439745379442
decision_type=2 2 2 2 2 2 2 2 2 2 2 2 2 2 2 2 2 2 2 2 2 2 2 2 2 2 2 2 2 2
left_child=1 2 6 -4 5 10 7 -1 9 -9 -2 -12 13 14 -6 17 18 -5 19 -17 28 -18 23 24 -8 -26 29 -27 -16 -24
right_child=4 -3 3 15 12 -7 22 8 -10 -11 11 -13 -14 -15 20 16 21 -19 -20 -21 -22 -23 26 -25 25 27 -28 -29 -30 -31
leaf_value=-0.00034942048962979756 -0.00046208018125350257 0.0048810093616531497 0.0019691516999558191 2.1822918438666691e-05 0.0026585712509035169 -0.0034055344461600217 -0.0010576866536247509 -0.0067934288178509638 -0.00067720248466799618 -0.0011841313763777653 0.00020385661954755213 0.0051795659747219435 -0.0033251131442429502 0.0016565256125886042 -0.00064153362556813572 0 -0.0031566200070790792 0.0035554954267667115 0.0010873695623389689 0.0052351778307871541 -0.0014492993804011739 0.00059324351633705007 0.00021887773151171221 0.0043881129653532917 0.00079061808547169145 -0.00020615641405340165 -0.0029067054961171663 -0.0014827109968870488 0.0013162186125966356 0.0011960206891487421
leaf_weight=418 25 26 201 792 20 21 460 32 61 33 20 41 43 44 315 21 28 27 146 48 381 34 1790 21 575 881 34 185 64 225
leaf_count=418 25 26 201 792 20 21 460 32 61 33 20 41 43 44 315 21 28 27 146 48 381 34 1790 21 575 881 34 185 64 225
internal_value=2.12131e-05 0.000116287 9.51014e-05 0.000664587 -0.00056504 0.0012187 -6.09271e-05 -0.000833916 -0.00241587 -0.00399791 0.00238536 0.00360029 -0.000788753 -0.000652367 -0.000786653 0.000422443 0.00123926 0.0001424 0.00191479 0.00361804 -0.000881602 -0.00105429 3.91878e-05 -0.000186354 -0.000233712 -8.59034e-07 0.000274227 -0.00043063 -0.000302763 0.000329531
internal_weight=7012 6038 6012 1297 974 107 4715 544 126 65 86 61 867 824 780 1096 277 819 215 69 760 62 4171 2122 2101 1641 2049 1066 379 2015
internal_count=7012 6038 6012 1297 974 107 4715 544 126 65 86 61 867 824 780 1096 277 819 215 69 760 62 4171 2122 2101 1641 2049 1066 379 2015
is_linear=0
shrinkage=0.03


Tree=27
num_leaves=31
num_cat=0
split_feature=4 21 17 6 16 11 15 17 12 12 20 21 2 21 9 6 17 6 2 9 9 21 20 15 6 6 12 4 21 12
split_gain=0.408841 0.435229 0.512641 0.390101 0.320702 0.286498 0.284785 0.412129 0.352388 0.340231 0.270069 0.564054 0.330316 0.261237 0.249273 0.722535 0.377624 0.262291 0.256499 0.228905 0.228508 0.225569 0.233653 0.221991 0.219709 0.212173 0.22106 0.530715 0.382712 0.255524
threshold=0.26006469623676498 2.1941682930779476 0.21221844261912012 3.725253436222689 -1.1670546024818622 -1.1157054895953615 0.70427820167835886 1.4111380818196422 -0.89534958133436304 1.9252784414878195 -1.8872239753958742 -0.53589844960664823 -1.2656550306120977 0.83530260253010524 0.13807119215816122 -0.42961540525150843 1.0362436719981225 -0.03500154486295478 0.14500358043523434 -1.1539422017490002 -0.14818653371050786 0.9300794361501844 0.06959223286017284 -0.86114304312605838 -0.8389559735021902 1.4286597011527957 0.21046415120544129 -1.3854388525310799 -0.86515162449570138 0.90139104385537905
decision_type=2 2 2 2 2 2 2 2 2 2 2 2 2 2 2 2 2 2 2 2 2 2 2 2 2 2 2 2 2 2
left_child=1 3 -3 6 -2 13 7 8 -1 -8 -9 -12 -13 -6 16 -16 -7 -17 -19 -15 -18 22 25 -24 -25 26 27 28 -10 -28
right_child=4 2 -4 -5 5 14 9 10 21 -11 11 12 -14 19 15 17 20 18 -20 -21 -22 -23 23 24 -26 -27 29 -29 -30 -31
leaf_value=0.00072437936826163379 -0.0034779644589432016 0.0062611186775294219 0.00024818913818717341 0.0033602936889244308 0.0012794156522772258 -0.00040376391006225122 0.00098727002298367264 -0.0002445171062411472 0.00071880871588967852 -0.0019668788756582773 0.003058757148722501 -0.0015664040003706718 0.0014152036571011997 -0.0030647128746555791 -0.0015745622285097322 0.0014577677575994094 -0.0023846771017541294 0.0015071679590651476 -0.00018403237451969037 0.00032820406430703454 0 -0.0026422401654127466 -0.0016971115957104266 -0.00044061616624133966 0.00047967302355395719 0.00082069328257296898 -0.0013656533786236169 -0.00051800322994808548 0.0049062248701592544 5.4461114399938543e-05
leaf_weight=451 28 23 31 34 191 1140 504 106 154 37 118 55 84 26 198 182 153 99 427 53 46 33 55 310 917 122 393 864 23 155
leaf_count=451 28 23 31 34 191 1140 504 106 154 37 118 55 84 26 198 182 153 99 427 53 46 33 55 310 917 122 393 864 23 155
internal_value=2.05851e-05 0.000193783 0.00287154 0.000160288 -0.000282604 -0.0002457 0.000134692 4.30687e-05 -5.65464e-05 0.00077936 0.00100525 0.00153228 0.000213586 0.000673584 -0.000357621 2.35061e-05 -0.000617724 0.000474819 0.000128797 -0.000752988 -0.00182754 -0.000173948 -0.000145644 0.000158928 0.000244701 -0.0003756 -0.000469383 -0.000208918 0.00128234 -0.000958569
internal_weight=7012 4469 54 4415 2543 2515 4381 3840 3477 541 363 257 139 270 2245 906 1339 708 526 79 199 3026 2993 1282 1227 1711 1589 1041 177 548
internal_count=7012 4469 54 4415 2543 2515 4381 3840 3477 541 363 257 139 270 2245 906 1339 708 526 79 199 3026 2993 1282 1227 1711 1589 1041 177 548
is_linear=0
shrinkage=0.03


Tree=28
num_leaves=31
num_cat=0
split_feature=4 21 15 20 13 5 16 2 17 14 2 21 17 9 2 17 15 2 5 4 1 5 20 2 8 15 15 9 9 21
split_gain=0.387448 0.549742 0.378241 0.464331 0.411243 0.366593 0.271035 0.261995 0.291857 0.206503 0.363313 0.298396 0.236136 0.202706 0.227338 0.263624 0.326821 0.215612 0.229433 0.196709 0.189176 0.25164 0.165438 0.158195 0.171733 0.156458 0.151132 0.146213 0.294769 0.285298
threshold=0.94600500864740444 3.2721442495672295 -0.25713691440808911 -0.75433493001213303 -1.4860416620093659 3.69806526429671 -0.22821409619672081 2.107203462756297 0.78636708788563758 -1.8708225053174765 -1.3706610311416727 -0.68930936139369658 1.4846069912686739 0.040155130802063975 0.89405294730548623 0.93241382196256606 -0.15858373844002344 2.906252207410263 -0.62084561138139516 1.7399403108171902 -0.037937964455013899 -0.44477581830451723 -0.33154758868824358 -0.74797019129332376 -0.52833645130169626 2.6209692779241656 1.1114809004455077 1.6729152758778496 0.78879699800241543 -0.42766651526975813
decision_type=2 2 2 2 2 2 2 2 2 2 2 2 2 2 2 2 2 2 2 2 2 2 2 2 2 2 2 2 2 2
left_child=1 5 3 -2 -4 9 -7 8 20 11 -11 12 -1 -12 15 23 -17 18 -16 -5 -6 -22 -10 -15 -25 -9 27 28 -26 -29
right_child=2 -3 4 19 7 6 -8 25 22 10 13 -13 -14 14 17 16 -18 -19 -20 -21 21 -23 -24 24 26 -27 -28 29 -30 -31
leaf_value=0.0010552366510581848 -0.0026831347353493645 0.0046400332750648225 0.0032190080170894594 0.0011954698254871652 0.00017694625267214686 0.0046774951862411851 0.0004132782580312403 0.0011766927472870628 -0.004208593627266671 -0.0010309840092296862 0.00027905875263738693 -0.00038214358106858847 0.004103484439034747 -0.0011959459222363733 -0.00057150425771662074 0.0010296233166446707 -0.0029331680565877856 -0.0022714719210299218 0.00096223947907354758 0.0045444400198934197 -0.0022480104468204608 -0.0005156446538455375 -0.0015841274016964362 0.00099985505876674366 -0.00027387259557817931 -0.0012788615892626273 0.0018800736383648372 0.0020301640163831029 -0.0014837638496157473 -0.00076950153899228864
leaf_weight=78 24 24 23 83 177 27 30 86 26 271 2685 75 35 179 111 227 20 24 385 21 106 287 217 92 1299 31 27 64 213 65
leaf_count=78 24 24 23 83 177 27 30 86 26 271 2685 75 35 179 111 227 20 24 385 21 106 287 217 92 1299 31 27 64 213 65
internal_value=1.99883e-05 0.000115606 -0.000501812 0.00101926 -0.000709345 9.6637e-05 0.00249036 -0.000810059 -0.00100231 7.27585e-05 3.97198e-05 0.00105129 0.0020287 9.41175e-05 -8.82834e-05 -0.000223332 0.000695552 0.000473605 0.000612909 0.00190424 -0.000623081 -0.000990983 -0.00187889 -0.000341961 -0.000253339 0.00049992 -0.000324314 -0.000362525 -0.000446384 0.000596739
internal_weight=7012 5931 1081 128 953 5907 57 930 813 5850 5662 188 113 5391 2706 2186 247 520 496 104 570 393 243 1939 1760 117 1668 1641 1512 129
internal_count=7012 5931 1081 128 953 5907 57 930 813 5850 5662 188 113 5391 2706 2186 247 520 496 104 570 393 243 1939 1760 117 1668 1641 1512 129
is_linear=0
shrinkage=0.03


Tree=29
num_leaves=31
num_cat=0
split_feature=4 7 17 21 17 20 21 7 11 7 6 23 21 12 14 15 9 16 6 9 7 8 3 9 15 19 17 17 21 6
split_gain=0.371683 0.497508 0.712585 0.855128 0.566898 0.51383 0.635454 0.381285 0.351811 0.308451 0.294999 0.279357 0.278861 0.275639 0.342308 0.325242 0.257084 0.25653 0.256806 0.36318 0.388695 0.245905 0.245175 0.241577 0.228394 0.239949 0.269135 0.239697 0.253971 0.251953
threshold=0.26006469623676498 0.33630439745379442 -0.22754751897174194 2.1941682930779476 1.3001672546514564 1.0000000180025095e-35 -0.46754310544125227 2.695237707364464 -1.0684285274765779 0.5002110339928979 3.725253436222689 1.2767504812401176 -0.050123244710680297 1.8620157082004549 -2.1652427555009028 0.9790097326361048 0.22864177358932067 -1.1670546024818622 -0.58815227945453941 0.12949879482787999 0.68101229721514844 0.29753620624106114 -0.13778338542312571 -0.0061787563961921395 0.25998218862580497 -0.99191178588910167 2.097627282174829 0.18891088162163291 -0.45804064037843223 0.41312369483854783
decision_type=2 2 2 2 2 2 2 2 2 2 2 2 2 2 2 2 2 2 2 2 2 2 2 2 2 2 2 2 2 2
left_child=1 2 3 16 11 10 -7 8 -2 -8 13 12 -4 14 -3 24 -1 -10 23 20 -20 -17 -15 -19 25 26 -16 28 -27 -29
right_child=7 5 4 -5 -6 6 9 -9 17 -11 -12 -13 -14 22 15 21 -18 18 19 -21 -22 -23 -24 -25 -26 27 -28 29 -30 -31
leaf_value=0.00040089139067442603 0.00079836457705367121 0.0036524198074313024 -0.0011221139267741116 0.0060179799524220558 0.0025084263961883397 0.0072768721392086309 0.0040478971884572263 -0.0026765169888443678 -0.0034292371594057225 0.00074206741764119356 0.0032046791419517956 -0.0039765755309798248 8.6302767418669913e-05 -0.00027603805299148857 -0.00095297258477562653 0.00050191463803560613 -0.00033581191427050315 -0.00014977814089349581 -0.00017422834532003143 0.00036313821378160612 -0.0016943965654424356 0.0051068203809199386 -0.0036301446934829604 -0.0014022779201007672 -0.00079332289845180379 0.00039445766897977519 0.0013498459650290665 0.0028275809422731121 -0.0030583265725506372 0.00086927941973282514
leaf_weight=1646 274 31 624 23 46 20 34 58 24 114 34 26 231 120 161 22 571 256 646 767 200 23 24 318 141 143 63 79 22 271
leaf_count=1646 274 31 624 23 46 20 34 58 24 114 34 26 231 120 161 22 571 256 646 767 200 23 24 318 141 143 63 79 22 271
internal_value=1.93925e-05 0.000184551 -1.74849e-05 0.000271033 -0.000717848 0.000678254 0.00223063 -0.000269669 -0.000212181 0.00152399 0.000445451 -0.000889973 -0.000792149 0.000357155 0.0005434 0.000435579 0.00020979 -0.0003388 -0.000303359 -0.000107281 -0.00053731 0.00292816 -0.000858006 -0.000849021 0.000304391 0.000517971 -0.000291605 0.00087591 -4.93163e-05 0.00132055
internal_weight=7012 4469 3167 2240 927 1302 168 2543 2485 148 1134 881 855 1100 956 925 2217 2211 2187 1613 846 45 144 574 880 739 224 515 165 350
internal_count=7012 4469 3167 2240 927 1302 168 2543 2485 148 1134 881 855 1100 956 925 2217 2211 2187 1613 846 45 144 574 880 739 224 515 165 350
is_linear=0
shrinkage=0.03


Tree=30
num_leaves=31
num_cat=0
split_feature=5 4 21 7 7 4 7 17 17 7 21 2 7 9 21 9 12 23 7 21 21 15 4 17 15 12 7 9 9 15
split_gain=0.375359 0.362432 0.385815 0.360976 0.286928 0.280851 0.392326 0.537218 0.480927 0.461363 0.305762 0.302003 0.426564 0.447763 0.269626 0.260316 0.329773 0.258465 0.34036 0.402253 0.302456 0.270413 0.255454 0.249228 0.244037 0.232682 0.225239 0.253086 0.222428 0.207396
threshold=2.9137408000344913 3.237327338931753 2.8613045598747999 -0.0515821628792879 1.0257501843447205 0.33446461476843103 0.3567964914617518 -0.33207768793595366 1.3001672546514564 0.25642312908962445 -0.058704418749960227 0.84198499851065156 1.0005061587816575 0.279051228191534 1.1623654269003305 -0.20105100713653137 1.5531581438854289 -0.31201436277573863 1.5971345919065985 -0.1797014284250871 1.09997452753098 -0.45013096065413538 -1.3664099999484371 0.87744924753558273 0.17185254386460011 -0.68152752854754517 -1.205291845628683 0.037160273076621071 0.32499258398658343 1.0368478665148448
decision_type=2 2 2 2 2 2 2 2 2 2 2 2 2 2 2 2 2 2 2 2 2 2 2 2 2 2 2 2 2 2
left_child=1 2 5 -4 -3 6 7 14 9 10 -9 22 13 -13 26 -2 -17 18 19 21 -21 -7 25 -14 28 -8 -1 -28 -5 -24
right_child=15 4 3 24 -6 17 11 8 -10 -11 -12 12 23 -15 -16 16 -18 -19 -20 20 -22 -23 29 -25 -26 -27 27 -29 -30 -31
leaf_value=-0.00071435358410864365 -0.0005931709346753012 0.00033350811811141756 0.0040394459590767677 0.0044817709262398153 -0.0035398862979621002 -0.0030641169139499383 0.0039816636583648026 -0.00090552517933280502 0.0024098234257956099 -0.0033994441521279315 0.00023999380905411291 0.0061259849628903596 0.0013195831927525783 0.0011558635369435233 0.0036572163168396518 0.0041223752039733167 0.00086928767544541797 -0.00049121826850099734 -0.0023366885052459197 0.0016902657678499154 -0.00078197982855564632 0.00078753739024935176 -0.00011380971049972907 -0.0014634022543914716 -0.00027797379817782629 0.00082676586734169979 0.00061857930892362221 -7.2731705333303948e-05 5.070033358104184e-06 0.0017993914532710117
leaf_weight=235 42 25 37 23 47 38 24 763 45 56 284 32 122 37 20 46 80 1744 37 219 54 27 676 37 84 222 937 956 20 55
leaf_count=235 42 25 37 23 47 38 24 763 45 56 284 32 122 37 20 46 80 1744 37 219 54 27 676 37 84 222 937 956 20 55
internal_value=-3.8937e-06 -3.86588e-05 -1.57266e-05 0.00142058 -0.00215475 -5.17829e-05 8.17546e-05 -8.68154e-05 -0.000611314 -0.000737497 -0.000591943 0.000545298 0.00153159 0.00350979 0.000192122 0.00139619 0.00208304 -0.000336838 0.000373075 0.000679182 0.00119016 -0.00141936 0.000311926 0.000652601 0.000631418 0.00114824 0.000157975 0.000267884 0.00247403 2.62614e-05
internal_weight=7024 6856 6784 164 72 6620 4501 3296 1148 1103 1047 1205 228 69 2148 168 126 2119 375 338 273 65 977 159 127 246 2128 1893 43 731
internal_count=7024 6856 6784 164 72 6620 4501 3296 1148 1103 1047 1205 228 69 2148 168 126 2119 375 338 273 65 977 159 127 246 2128 1893 43 731
is_linear=0
shrinkage=0.03


end of trees

feature_importances:
Column_7=169
Column_21=117
Column_4=87
Column_17=72
Column_15=64
Column_9=61
Column_6=56
Column_20=55
Column_14=39
Column_3=37
Column_2=35
Column_23=33
Column_12=32
Column_5=28
Column_16=16
Column_11=9
Column_19=6
Column_1=4
Column_8=4
Column_13=4
Column_22=2

parameters:
[boosting: gbdt]
[objective: regression]
[metric: rmse]
[tree_learner: serial]
[device_type: cpu]
[data_sample_strategy: bagging]
[data: ]
[valid: ]
[num_iterations: 500]
[learning_rate: 0.03]
[num_leaves: 31]
[num_threads: 0]
[seed: 42]
[deterministic: 0]
[force_col_wise: 0]
[force_row_wise: 0]
[histogram_pool_size: -1]
[max_depth: -1]
[min_data_in_leaf: 20]
[min_sum_hessian_in_leaf: 0.001]
[bagging_fraction: 0.8]
[pos_bagging_fraction: 1]
[neg_bagging_fraction: 1]
[bagging_freq: 5]
[bagging_seed: 400]
[bagging_by_query: 0]
[feature_fraction: 0.8]
[feature_fraction_bynode: 1]
[feature_fraction_seed: 30056]
[extra_trees: 0]
[extra_seed: 12879]
[early_stopping_round: 0]
[early_stopping_min_delta: 0]
[first_metric_only: 0]
[max_delta_step: 0]
[lambda_l1: 0.1]
[lambda_l2: 0.1]
[linear_lambda: 0]
[min_gain_to_split: 0]
[drop_rate: 0.1]
[max_drop: 50]
[skip_drop: 0.5]
[xgboost_dart_mode: 0]
[uniform_drop: 0]
[drop_seed: 17869]
[top_rate: 0.2]
[other_rate: 0.1]
[min_data_per_group: 100]
[max_cat_threshold: 32]
[cat_l2: 10]
[cat_smooth: 10]
[max_cat_to_onehot: 4]
[top_k: 20]
[monotone_constraints: ]
[monotone_constraints_method: basic]
[monotone_penalty: 0]
[feature_contri: ]
[forcedsplits_filename: ]
[refit_decay_rate: 0.9]
[cegb_tradeoff: 1]
[cegb_penalty_split: 0]
[cegb_penalty_feature_lazy: ]
[cegb_penalty_feature_coupled: ]
[path_smooth: 0]
[interaction_constraints: ]
[verbosity: -1]
[saved_feature_importance_type: 0]
[use_quantized_grad: 0]
[num_grad_quant_bins: 4]
[quant_train_renew_leaf: 0]
[stochastic_rounding: 1]
[linear_tree: 0]
[max_bin: 255]
[max_bin_by_feature: ]
[min_data_in_bin: 3]
[bin_construct_sample_cnt: 200000]
[data_random_seed: 175]
[is_enable_sparse: 1]
[enable_bundle: 1]
[use_missing: 1]
[zero_as_missing: 0]
[feature_pre_filter: 1]
[pre_partition: 0]
[two_round: 0]
[header: 0]
[label_column: ]
[weight_column: ]
[group_column: ]
[ignore_column: ]
[categorical_feature: ]
[forcedbins_filename: ]
[precise_float_parser: 0]
[parser_config_file: ]
[objective_seed: 16083]
[num_class: 1]
[is_unbalance: 0]
[scale_pos_weight: 1]
[sigmoid: 1]
[boost_from_average: 1]
[reg_sqrt: 0]
[alpha: 0.9]
[fair_c: 1]
[poisson_max_delta_step: 0.7]
[tweedie_variance_power: 1.5]
[lambdarank_truncation_level: 30]
[lambdarank_norm: 1]
[label_gain: ]
[lambdarank_position_bias_regularization: 0]
[eval_at: ]
[multi_error_top_k: 1]
[auc_mu_weights: ]
[num_machines: 1]
[local_listen_port: 12400]
[time_out: 120]
[machine_list_filename: ]
[machines: ]
[gpu_platform_id: -1]
[gpu_device_id: -1]
[gpu_use_dp: 0]
[num_gpu: 1]

end of parameters

pandas_categorical:null
